{"learner":{"attributes":{"best_iteration":"42","best_ntree_limit":"43","best_score":"0.931063","scikit_learn":"{\"use_label_encoder\": true, \"n_estimators\": 1000, \"objective\": \"binary:logistic\", \"max_depth\": 6, \"learning_rate\": 0.01, \"verbosity\": null, \"booster\": null, \"tree_method\": null, \"gamma\": null, \"min_child_weight\": null, \"max_delta_step\": null, \"subsample\": null, \"colsample_bytree\": null, \"colsample_bylevel\": null, \"colsample_bynode\": null, \"reg_alpha\": null, \"reg_lambda\": null, \"scale_pos_weight\": null, \"base_score\": null, \"missing\": NaN, \"num_parallel_tree\": null, \"random_state\": null, \"n_jobs\": null, \"monotone_constraints\": null, \"interaction_constraints\": null, \"importance_type\": null, \"gpu_id\": null, \"validate_parameters\": null, \"predictor\": null, \"enable_categorical\": false, \"kwargs\": {\"seed\": 45}, \"classes_\": [\"bot\", \"human\"], \"n_classes_\": 2, \"_le\": {\"classes_\": [\"bot\", \"human\"]}, \"evals_result_\": {\"validation_0\": {\"aucpr\": [0.914648, 0.916205, 0.916223, 0.916286, 0.917784, 0.917815, 0.917841, 0.918186, 0.918402, 0.9184, 0.923231, 0.926741, 0.926714, 0.927181, 0.927475, 0.928455, 0.928458, 0.928526, 0.928536, 0.928691, 0.928683, 0.928969, 0.928811, 0.928974, 0.929123, 0.929083, 0.929354, 0.929252, 0.929375, 0.929449, 0.929432, 0.929464, 0.929761, 0.929969, 0.930125, 0.930146, 0.930255, 0.930856, 0.930881, 0.930925, 0.930966, 0.930979, 0.931063, 0.931017, 0.93103, 0.931038, 0.930954, 0.93096, 0.930985, 0.930928, 0.93099, 0.931002, 0.930997]}}, \"_estimator_type\": \"classifier\"}"},"feature_names":["followers_count","friends_count","statuses_count"],"feature_types":["int","int","int"],"gradient_booster":{"model":{"gbtree_model_param":{"num_trees":"53","size_leaf_vector":"0"},"tree_info":[0,0,0,0,0,0,0,0,0,0,0,0,0,0,0,0,0,0,0,0,0,0,0,0,0,0,0,0,0,0,0,0,0,0,0,0,0,0,0,0,0,0,0,0,0,0,0,0,0,0,0,0,0],"trees":[{"base_weights":[6.7201E-1,-8.5846156E-1,1.2871206E0,-4.7022828E-1,-1.321519E0,-1.5141541E-1,1.4089893E0,-1.4839672E0,-2.7472528E-3,-1.6809068E0,-6.6561264E-1,-4.7342995E-1,1.2740214E0,9.9445117E-1,1.533571E0,-1.8697226E0,-8.5271317E-1,2.526912E-1,-3.944396E-1,-1.7441643E0,-7.692308E-1,-1.04417674E-1,-1.0246433E0,7.966457E-2,-8.1404424E-1,1.5884774E0,-6.666667E-1,7.929515E-2,1.0464048E0,1.5939118E0,2.2585924E-1,4.6153846E-1,-1.9355638E0,-3.8709676E-1,-1.5238096E0,-1.0691824E-1,4.5366284E-1,-7.761194E-1,4.8433048E-1,-1.8575667E0,-1.5438596E0,-1.0793651E0,4.7058824E-1,-2.6697892E-1,8.2666665E-1,-1.3684211E0,-4.0569395E-1,1.9951338E-1,-6.2857145E-1,-5.783972E-1,-1.477387E0,8.75E-1,1.8032787E0,-8E-2,-1.2380953E0,8.148148E-1,-1.9607844E-2,7.187839E-1,1.1454242E0,1.6301959E0,8.0546075E-1,4.2447418E-1,-9.130435E-1,7.2727275E-1,-5E-1,-1.9687907E0,-1.1428572E0,-5.8536583E-1,3.529412E-1,-1.7142857E0,-1.081081E0,2.7312776E-1,-3.1476998E-1,3.8872105E-1,8.888889E-1,-9.879518E-1,-4.2580646E-1,6.1349694E-2,8.333333E-1,-1.8657718E0,-1.8181819E-1,-1.3462366E0,-1.7982196E0,-0E0,-1.1724138E0,-1E0,8E-1,-9.1603056E-2,-5.325444E-1,-0E0,1.0163934E0,-1.6327869E0,-9.222798E-1,-1.5272727E0,3.0857143E-1,-2.0118344E-1,4.715447E-1,3.7037036E-1,-1.1489362E0,-8.436019E-1,-4.1961852E-1,-5.882353E-1,-1.5268817E0,1.2941177E0,-5.882353E-1,2.5E-1,-4.6153846E-1,-2.2222222E-1,1.0909091E0,-2.1875E-1,3E-1,1.0360532E0,2.914573E-1,-7.1428573E-1,1.1613553E0,1.391737E0,1.7682328E0,1.0543479E0,3.783784E-1,6.0633487E-1,-5.411765E-1,-4.390244E-1,-1.2E0],"categories":[],"categories_nodes":[],"categories_segments":[],"categories_sizes":[],"default_left":[true,true,true,true,true,true,true,true,true,true,true,true,true,true,true,true,true,true,true,true,true,true,true,true,true,true,true,true,true,true,true,true,true,true,true,true,true,true,true,true,true,true,true,true,true,true,true,true,true,true,true,true,false,true,false,true,true,true,true,true,true,true,true,false,false,false,false,false,false,false,false,false,false,false,false,false,false,false,false,false,false,false,false,false,false,false,false,false,false,false,false,false,false,false,false,false,false,false,false,false,false,false,false,false,false,false,false,false,false,false,false,false,false,false,false,false,false,false,false,false,false,false,false],"id":0,"left_children":[1,3,5,7,9,11,13,15,17,19,21,23,25,27,29,31,33,35,37,39,41,43,45,47,49,51,53,55,57,59,61,63,65,67,69,71,73,75,77,79,81,83,85,87,89,91,93,95,97,99,101,103,-1,105,-1,107,109,111,113,115,117,119,121,-1,-1,-1,-1,-1,-1,-1,-1,-1,-1,-1,-1,-1,-1,-1,-1,-1,-1,-1,-1,-1,-1,-1,-1,-1,-1,-1,-1,-1,-1,-1,-1,-1,-1,-1,-1,-1,-1,-1,-1,-1,-1,-1,-1,-1,-1,-1,-1,-1,-1,-1,-1,-1,-1,-1,-1,-1,-1,-1,-1],"loss_changes":[6.402452E3,3.4993848E2,8.5060986E2,5.0340015E2,2.0838147E2,1.7491272E2,2.2942676E2,8.00423E1,7.293848E1,3.17323E1,6.361302E1,5.856054E1,4.3929832E1,4.91864E1,2.7082812E2,3.2704773E1,3.9719223E1,3.1938213E1,9.688976E1,9.296143E0,1.5503845E1,1.9064804E1,4.0458374E1,1.0247498E1,2.9196991E1,7.732422E0,3.4209523E0,4.1442614E0,3.0984985E1,9.266504E1,3.4940086E1,2.0244756E0,3.0639038E0,1.1577915E1,2.5739975E0,1.2645895E1,7.660351E0,1.4495064E1,1.290266E1,4.2944336E0,7.6075134E0,3.1636543E0,4.9176474E0,4.922968E0,2.9407644E0,1.3060272E1,5.6748894E1,1.1294832E1,9.522278E0,5.6886253E0,1.2912521E0,1.057353E1,0E0,9.023077E-1,0E0,2.175084E0,3.3116422E0,3.0914764E1,2.3086731E1,1.0087891E2,1.5173317E1,2.3289648E1,2.601694E0,0E0,0E0,0E0,0E0,0E0,0E0,0E0,0E0,0E0,0E0,0E0,0E0,0E0,0E0,0E0,0E0,0E0,0E0,0E0,0E0,0E0,0E0,0E0,0E0,0E0,0E0,0E0,0E0,0E0,0E0,0E0,0E0,0E0,0E0,0E0,0E0,0E0,0E0,0E0,0E0,0E0,0E0,0E0,0E0,0E0,0E0,0E0,0E0,0E0,0E0,0E0,0E0,0E0,0E0,0E0,0E0,0E0,0E0,0E0,0E0],"parents":[2147483647,0,0,1,1,2,2,3,3,4,4,5,5,6,6,7,7,8,8,9,9,10,10,11,11,12,12,13,13,14,14,15,15,16,16,17,17,18,18,19,19,20,20,21,21,22,22,23,23,24,24,25,25,26,26,27,27,28,28,29,29,30,30,31,31,32,32,33,33,34,34,35,35,36,36,37,37,38,38,39,39,40,40,41,41,42,42,43,43,44,44,45,45,46,46,47,47,48,48,49,49,50,50,51,51,53,53,55,55,56,56,57,57,58,58,59,59,60,60,61,61,62,62],"right_children":[2,4,6,8,10,12,14,16,18,20,22,24,26,28,30,32,34,36,38,40,42,44,46,48,50,52,54,56,58,60,62,64,66,68,70,72,74,76,78,80,82,84,86,88,90,92,94,96,98,100,102,104,-1,106,-1,108,110,112,114,116,118,120,122,-1,-1,-1,-1,-1,-1,-1,-1,-1,-1,-1,-1,-1,-1,-1,-1,-1,-1,-1,-1,-1,-1,-1,-1,-1,-1,-1,-1,-1,-1,-1,-1,-1,-1,-1,-1,-1,-1,-1,-1,-1,-1,-1,-1,-1,-1,-1,-1,-1,-1,-1,-1,-1,-1,-1,-1,-1,-1,-1,-1],"split_conditions":[5.25E1,1.1465E3,1.25E1,9.15E1,2.15E1,1.94395E4,2.945E2,5E-1,3.395E2,3.6825E3,2.6365E3,2.9915E3,5.52995E4,6.55E1,1.630265E5,1.5E0,1.255E2,1.505E2,2.45E1,1.15E1,4.05E1,4.55E1,3.7155E3,5E-1,5E-1,1.2742E5,2.5E0,7E2,8.85E1,1.26E4,4.48106E5,8.5E0,8.45E1,5.25E1,2.25E1,5E-1,9.75E1,1.05E1,9.45E1,4.955E2,2.751E3,5E-1,4.032E3,1.934E3,1.05E1,3.75E1,1.95E1,9.15E1,6.205E2,4.966E3,3.923E3,1.78895E4,1.8032787E-2,8.41255E4,-1.2380953E-2,9.95E1,5.118E3,2.654E3,3.65E1,1.4905E3,4.83115E4,1.5724E4,5.72172E5,7.2727273E-3,-5E-3,-1.9687906E-2,-1.1428571E-2,-5.853658E-3,3.5294117E-3,-1.7142856E-2,-1.081081E-2,2.7312776E-3,-3.1476999E-3,3.8872105E-3,8.888889E-3,-9.879518E-3,-4.2580646E-3,6.1349693E-4,8.333333E-3,-1.8657718E-2,-1.8181818E-3,-1.3462366E-2,-1.7982196E-2,-0E0,-1.1724138E-2,-1E-2,8E-3,-9.1603055E-4,-5.3254436E-3,-0E0,1.0163934E-2,-1.632787E-2,-9.222797E-3,-1.5272726E-2,3.0857143E-3,-2.0118344E-3,4.715447E-3,3.7037034E-3,-1.14893615E-2,-8.436019E-3,-4.196185E-3,-5.882353E-3,-1.5268817E-2,1.2941177E-2,-5.882353E-3,2.5E-3,-4.6153846E-3,-2.2222223E-3,1.0909091E-2,-2.1875E-3,3E-3,1.03605315E-2,2.9145728E-3,-7.142857E-3,1.1613552E-2,1.391737E-2,1.7682327E-2,1.0543479E-2,3.7837839E-3,6.0633486E-3,-5.411765E-3,-4.390244E-3,-1.2E-2],"split_indices":[0,2,1,2,0,0,0,1,2,2,2,2,2,1,2,2,1,2,0,0,1,0,2,1,1,0,1,2,0,1,2,0,2,2,0,0,1,0,1,1,2,0,2,2,1,0,1,0,2,2,2,2,0,2,0,2,2,2,2,0,2,1,2,0,0,0,0,0,0,0,0,0,0,0,0,0,0,0,0,0,0,0,0,0,0,0,0,0,0,0,0,0,0,0,0,0,0,0,0,0,0,0,0,0,0,0,0,0,0,0,0,0,0,0,0,0,0,0,0,0,0,0,0],"split_type":[0,0,0,0,0,0,0,0,0,0,0,0,0,0,0,0,0,0,0,0,0,0,0,0,0,0,0,0,0,0,0,0,0,0,0,0,0,0,0,0,0,0,0,0,0,0,0,0,0,0,0,0,0,0,0,0,0,0,0,0,0,0,0,0,0,0,0,0,0,0,0,0,0,0,0,0,0,0,0,0,0,0,0,0,0,0,0,0,0,0,0,0,0,0,0,0,0,0,0,0,0,0,0,0,0,0,0,0,0,0,0,0,0,0,0,0,0,0,0,0,0,0,0],"sum_hessian":[6.79875E3,1.949E3,4.84975E3,1.06125E3,8.8775E2,3.7875E2,4.471E3,3.3425E2,7.27E2,5.725E2,3.1525E2,3.095E2,6.925E1,1.03525E3,3.43575E3,2.0625E2,1.28E2,4.4025E2,2.8675E2,5.345E2,3.8E1,1.235E2,1.9175E2,1.1825E2,1.9125E2,5.975E1,9.5E0,5.575E1,9.795E2,3.284E3,1.5175E2,5.5E0,2.0075E2,7.65E1,5.15E1,1.58E2,2.8225E2,2E2,8.675E1,3.36E2,1.985E2,3.05E1,7.5E0,1.0575E2,1.775E1,1.225E2,6.925E1,1.0175E2,1.65E1,1.425E2,4.875E1,1.5E1,4.475E1,5.25E0,4.25E0,5.75E0,5E1,2.2925E2,7.5025E2,3.1385E3,1.455E2,1.2975E2,2.2E1,4.5E0,1E0,1.9125E2,9.5E0,6.05E1,1.6E1,3.4E1,1.75E1,5.575E1,1.0225E2,2.4725E2,3.5E1,1.235E2,7.65E1,3.975E1,4.7E1,3.3425E2,1.75E0,1.1525E2,8.325E1,2.5E0,2.8E1,1E0,6.5E0,6.45E1,4.125E1,3.5E0,1.425E1,7.525E1,4.725E1,2.65E1,4.275E1,4.125E1,6.05E1,5.75E0,1.075E1,5.175E1,9.075E1,3.25E0,4.55E1,1.175E1,3.25E0,3E0,2.25E0,1.25E0,4.5E0,3.1E1,1.9E1,1.3075E2,9.85E1,6E0,7.4425E2,1.15475E3,1.98375E3,9.1E1,5.45E1,1.095E2,2.025E1,9.25E0,1.275E1],"tree_param":{"num_deleted":"0","num_feature":"3","num_nodes":"123","size_leaf_vector":"0"}},{"base_weights":[6.6530466E-1,-8.499893E-1,1.2743223E0,-4.6558756E-1,-1.3084904E0,-1.4997926E-1,1.3949888E0,-1.4694028E0,-2.7099361E-3,-1.6643349E0,-6.59081E-1,-4.6882805E-1,1.2615101E0,9.845607E-1,1.5183395E0,-1.8513339E0,-8.4444433E-1,2.5019345E-1,-3.9051887E-1,-1.7269526E0,-7.6191175E-1,-1.0334259E-1,-1.0146333E0,7.882575E-2,-8.060963E-1,1.5731137E0,-6.6139203E-1,7.86699E-2,1.0359896E0,1.5780896E0,2.235001E-1,4.5727736E-1,-1.9165419E0,-3.8325858E-1,-1.5091908E0,-1.0585199E-1,4.4917393E-1,-7.684413E-1,4.795937E-1,-1.8392113E0,-1.5286705E0,-1.0689764E0,4.656542E-1,-2.643684E-1,8.1895804E-1,-1.35501E0,-4.0181997E-1,1.9754523E-1,-6.22744E-1,-5.727066E-1,-1.4631171E0,8.6671954E-1,1.7857826E0,-7.9538725E-2,-1.2281109E0,8.0797E-1,-1.9395877E-2,7.116652E-1,1.1340142E0,1.6140128E0,7.9751885E-1,4.2023823E-1,-9.0464556E-1,6.6078633E-1,-2.20809E-1,-1.9493936E0,-1.1325506E0,-5.7961226E-1,3.496205E-1,-1.6977544E0,-1.0708842E0,2.7044505E-1,-3.1165364E-1,3.8485098E-1,8.80264E-1,-9.781753E-1,-4.216051E-1,6.0751304E-2,8.2518774E-1,-1.8473308E0,-1.8066126E-1,-1.3329501E0,-1.7805935E0,-0E0,-1.1611326E0,-6.631196E-1,7.5173455E-1,-9.070106E-2,-5.273487E-1,-0E0,1.0069202E0,-1.6167799E0,-9.132672E-1,-1.5126407E0,3.0555704E-1,-1.9921952E-1,4.6690848E-1,3.6721635E-1,-1.138459E0,-8.3534044E-1,-4.154699E-1,-5.8374095E-1,-1.5120275E0,1.2822412E0,-5.8374095E-1,2.4812524E-1,-4.5834494E-1,-2.2098787E-1,1.08201E0,-2.1663111E-1,2.971506E-1,1.0257986E0,2.8857252E-1,-7.0817125E-1,1.1497962E0,1.4135625E0,1.7755208E0,1.0439478E0,3.7466416E-1,6.0033196E-1,-5.360232E-1,-4.350644E-1,-1.1889125E0],"categories":[],"categories_nodes":[],"categories_segments":[],"categories_sizes":[],"default_left":[true,true,true,true,true,true,true,true,true,true,true,true,true,true,true,true,true,true,true,true,true,true,true,true,true,true,true,true,true,true,true,true,true,true,true,true,true,true,true,true,true,true,true,true,true,true,true,true,true,true,true,true,false,true,false,true,true,true,true,true,true,true,true,false,false,false,false,false,false,false,false,false,false,false,false,false,false,false,false,false,false,false,false,false,false,false,false,false,false,false,false,false,false,false,false,false,false,false,false,false,false,false,false,false,false,false,false,false,false,false,false,false,false,false,false,false,false,false,false,false,false,false,false],"id":1,"left_children":[1,3,5,7,9,11,13,15,17,19,21,23,25,27,29,31,33,35,37,39,41,43,45,47,49,51,53,55,57,59,61,63,65,67,69,71,73,75,77,79,81,83,85,87,89,91,93,95,97,99,101,103,-1,105,-1,107,109,111,113,115,117,119,121,-1,-1,-1,-1,-1,-1,-1,-1,-1,-1,-1,-1,-1,-1,-1,-1,-1,-1,-1,-1,-1,-1,-1,-1,-1,-1,-1,-1,-1,-1,-1,-1,-1,-1,-1,-1,-1,-1,-1,-1,-1,-1,-1,-1,-1,-1,-1,-1,-1,-1,-1,-1,-1,-1,-1,-1,-1,-1,-1,-1],"loss_changes":[6.2758623E3,3.4306165E2,8.338428E2,4.9355038E2,2.042716E2,1.7149448E2,2.2489453E2,7.845245E1,7.1498024E1,3.108899E1,6.2382614E1,5.7413948E1,4.3130447E1,4.8194885E1,2.65521E2,3.2072937E1,3.896823E1,3.1308249E1,9.498947E1,9.107178E0,1.5198107E1,1.8706425E1,3.9659164E1,1.005529E1,2.8641434E1,7.5779724E0,3.3646045E0,4.0743804E0,3.0363892E1,9.082031E1,3.428255E1,1.0428767E0,2.987854E0,1.1355083E1,2.5207062E0,1.2397623E1,7.515419E0,1.4208763E1,1.2651514E1,4.2039795E0,7.462616E0,3.1030579E0,3.243269E0,4.8275447E0,2.8861895E0,1.280368E1,5.5661182E1,1.1074265E1,9.352276E0,5.5788155E0,1.2570419E0,1.0391347E1,0E0,8.894821E-1,0E0,2.1424084E0,3.2485073E0,3.0305443E1,2.2654907E1,9.912305E1,1.4874413E1,2.2838923E1,2.552868E0,0E0,0E0,0E0,0E0,0E0,0E0,0E0,0E0,0E0,0E0,0E0,0E0,0E0,0E0,0E0,0E0,0E0,0E0,0E0,0E0,0E0,0E0,0E0,0E0,0E0,0E0,0E0,0E0,0E0,0E0,0E0,0E0,0E0,0E0,0E0,0E0,0E0,0E0,0E0,0E0,0E0,0E0,0E0,0E0,0E0,0E0,0E0,0E0,0E0,0E0,0E0,0E0,0E0,0E0,0E0,0E0,0E0,0E0,0E0,0E0],"parents":[2147483647,0,0,1,1,2,2,3,3,4,4,5,5,6,6,7,7,8,8,9,9,10,10,11,11,12,12,13,13,14,14,15,15,16,16,17,17,18,18,19,19,20,20,21,21,22,22,23,23,24,24,25,25,26,26,27,27,28,28,29,29,30,30,31,31,32,32,33,33,34,34,35,35,36,36,37,37,38,38,39,39,40,40,41,41,42,42,43,43,44,44,45,45,46,46,47,47,48,48,49,49,50,50,51,51,53,53,55,55,56,56,57,57,58,58,59,59,60,60,61,61,62,62],"right_children":[2,4,6,8,10,12,14,16,18,20,22,24,26,28,30,32,34,36,38,40,42,44,46,48,50,52,54,56,58,60,62,64,66,68,70,72,74,76,78,80,82,84,86,88,90,92,94,96,98,100,102,104,-1,106,-1,108,110,112,114,116,118,120,122,-1,-1,-1,-1,-1,-1,-1,-1,-1,-1,-1,-1,-1,-1,-1,-1,-1,-1,-1,-1,-1,-1,-1,-1,-1,-1,-1,-1,-1,-1,-1,-1,-1,-1,-1,-1,-1,-1,-1,-1,-1,-1,-1,-1,-1,-1,-1,-1,-1,-1,-1,-1,-1,-1,-1,-1,-1,-1,-1,-1],"split_conditions":[5.25E1,1.1465E3,1.25E1,9.15E1,2.15E1,1.94395E4,2.945E2,5E-1,3.395E2,3.6825E3,2.6365E3,2.9915E3,5.52995E4,6.55E1,1.630265E5,1.5E0,1.255E2,1.505E2,2.45E1,1.15E1,4.05E1,4.55E1,3.7155E3,5E-1,5E-1,1.2742E5,2.5E0,7E2,8.85E1,1.26E4,4.48106E5,6.5E0,8.45E1,5.25E1,2.25E1,5E-1,9.75E1,1.05E1,9.45E1,4.955E2,2.751E3,5E-1,4.1835E3,1.934E3,1.05E1,3.75E1,1.95E1,9.15E1,6.205E2,4.966E3,3.923E3,1.78895E4,1.7857825E-2,8.41255E4,-1.2281109E-2,9.95E1,5.118E3,2.654E3,3.65E1,2.8185E3,4.83115E4,1.5724E4,5.72172E5,6.607863E-3,-2.20809E-3,-1.9493936E-2,-1.1325506E-2,-5.7961224E-3,3.4962047E-3,-1.6977543E-2,-1.0708842E-2,2.7044504E-3,-3.1165364E-3,3.8485096E-3,8.802639E-3,-9.781753E-3,-4.216051E-3,6.07513E-4,8.2518775E-3,-1.8473309E-2,-1.8066126E-3,-1.3329501E-2,-1.7805934E-2,-0E0,-1.1611326E-2,-6.631196E-3,7.5173452E-3,-9.070106E-4,-5.273487E-3,-0E0,1.0069202E-2,-1.6167799E-2,-9.132672E-3,-1.5126407E-2,3.0555704E-3,-1.9921951E-3,4.6690847E-3,3.6721635E-3,-1.138459E-2,-8.353404E-3,-4.154699E-3,-5.8374093E-3,-1.5120274E-2,1.2822412E-2,-5.8374093E-3,2.4812524E-3,-4.583449E-3,-2.2098788E-3,1.08201E-2,-2.166311E-3,2.971506E-3,1.0257985E-2,2.885725E-3,-7.081712E-3,1.1497962E-2,1.4135625E-2,1.7755209E-2,1.0439478E-2,3.7466416E-3,6.0033193E-3,-5.3602317E-3,-4.350644E-3,-1.1889125E-2],"split_indices":[0,2,1,2,0,0,0,1,2,2,2,2,2,1,2,2,1,2,0,0,1,0,2,1,1,0,1,2,0,1,2,0,2,2,0,0,1,0,1,1,2,0,2,2,1,0,1,0,2,2,2,2,0,2,0,2,2,2,2,0,2,1,2,0,0,0,0,0,0,0,0,0,0,0,0,0,0,0,0,0,0,0,0,0,0,0,0,0,0,0,0,0,0,0,0,0,0,0,0,0,0,0,0,0,0,0,0,0,0,0,0,0,0,0,0,0,0,0,0,0,0,0,0],"split_type":[0,0,0,0,0,0,0,0,0,0,0,0,0,0,0,0,0,0,0,0,0,0,0,0,0,0,0,0,0,0,0,0,0,0,0,0,0,0,0,0,0,0,0,0,0,0,0,0,0,0,0,0,0,0,0,0,0,0,0,0,0,0,0,0,0,0,0,0,0,0,0,0,0,0,0,0,0,0,0,0,0,0,0,0,0,0,0,0,0,0,0,0,0,0,0,0,0,0,0,0,0,0,0,0,0,0,0,0,0,0,0,0,0,0,0,0,0,0,0,0,0,0,0],"sum_hessian":[6.7984175E3,1.9489209E3,4.8494966E3,1.0612213E3,8.876995E2,3.787409E2,4.4707554E3,3.342275E2,7.2699384E2,5.724579E2,3.1524164E2,3.0949524E2,6.924566E1,1.0352208E3,3.4355347E3,2.062311E2,1.2799642E2,4.4024802E2,2.8674582E2,5.34459E2,3.799891E1,1.2349932E2,1.9174232E2,1.1824925E2,1.91246E2,5.9745842E1,9.499821E0,5.5749786E1,9.7947107E2,3.2837864E3,1.5174834E2,5.499934E0,2.0073116E2,7.649943E1,5.149699E1,1.5799963E2,2.8224838E2,1.9999664E2,8.674918E1,3.3597092E2,1.9848804E2,3.0499037E1,7.4998713E0,1.0574969E2,1.7749632E1,1.2249397E2,6.924835E1,1.01749626E2,1.6499626E1,1.4249869E2,4.8747322E1,1.499948E1,4.474636E1,5.2499833E0,4.249837E0,5.7498646E0,4.999992E1,2.2924628E2,7.502248E2,3.138289E3,1.4549728E2,1.2974884E2,2.1999496E1,4.2499437E0,1.2499905E0,1.9123146E2,9.499689E0,6.049948E1,1.599995E1,3.3997498E1,1.749949E1,5.5749897E1,1.0224974E2,2.4724907E2,3.499931E1,1.23496994E2,7.649966E1,3.9749996E1,4.6999184E1,3.3422092E2,1.7499986E0,1.15244774E2,8.324327E1,2.5E0,2.7999037E1,1.249971E0,6.2499003E0,6.4499985E1,4.1249706E1,3.5E0,1.4249632E1,7.524498E1,4.7248993E1,2.6498455E1,4.2749897E1,4.124996E1,6.0499664E1,5.74998E0,1.0749645E1,5.174908E1,9.07496E1,3.2499719E0,4.549735E1,1.1749508E1,3.2499719E0,2.9999952E0,2.249988E0,1.2499983E0,4.499866E0,3.0999964E1,1.8999956E1,1.3074649E2,9.849979E1,5.999923E0,7.442249E2,1.4046746E3,1.7336145E3,9.0997475E1,5.4499805E1,1.0949899E2,2.0249851E1,9.249956E0,1.2749541E1],"tree_param":{"num_deleted":"0","num_feature":"3","num_nodes":"123","size_leaf_vector":"0"}},{"base_weights":[6.587304E-1,-8.416656E-1,1.2617812E0,-4.6101546E-1,-1.295732E0,-1.4856377E-1,1.3812761E0,-1.4551675E0,-2.6731894E-3,-1.6481599E0,-6.526473E-1,-4.6428502E-1,1.2492738E0,9.7482264E-1,1.5034449E0,-1.8334453E0,-8.363015E-1,2.4772252E-1,-3.8664824E-1,-1.7101688E0,-7.5462925E-1,-1.022794E-1,-1.0047997E0,7.799678E-2,-7.9825896E-1,1.5581089E0,-6.561816E-1,7.804995E-2,1.0257375E0,1.5626247E0,2.2117E-1,4.5339233E-1,-1.8980565E0,-3.7946403E-1,-1.494881E0,-1.0479673E-1,4.447344E-1,-7.608643E-1,4.7491193E-1,-1.8213469E0,-1.5138098E0,-1.0587515E0,4.6111917E-1,-2.617847E-1,8.1135315E-1,-1.3418591E0,-3.9800164E-1,1.955981E-1,-6.1699677E-1,-5.6708217E-1,-1.4491395E0,8.585722E-1,1.7687334E0,-7.908036E-2,-1.2182819E0,8.012138E-1,-1.9186297E-2,7.046397E-1,1.1227918E0,1.5982019E0,7.8968424E-1,4.160516E-1,-8.963638E-1,6.554558E-1,-2.1958286E-1,-1.9305545E0,-1.1224023E0,-5.7392484E-1,3.4633297E-1,-1.6816187E0,-1.0608417E0,2.6778978E-1,-3.085695E-1,3.8102216E-1,8.717555E-1,-9.685416E-1,-4.174491E-1,6.0158733E-2,8.1714904E-1,-1.8293844E0,-1.7951183E-1,-1.3199116E0,-1.763418E0,-0E0,-1.1500351E0,-6.5944755E-1,7.4528265E-1,-8.980778E-2,-5.2221066E-1,-0E0,9.975831E-1,-1.6011369E0,-9.0437967E-1,-1.4983146E0,3.0257338E-1,-1.9727492E-1,4.6232292E-1,3.6409137E-1,-1.1281449E0,-8.271884E-1,-4.1136578E-1,-5.7928836E-1,-1.4974866E0,1.2705704E0,-5.7928836E-1,2.4626519E-1,-4.5517686E-1,-2.1976052E-1,1.073235E0,6.668566E-1,-1.0825313E-1,1.015699E0,2.857177E-1,-7.0212406E-1,1.1384276E0,1.3639781E0,1.7338033E0,1.0337062E0,3.7098902E-1,5.943989E-1,-5.3092587E-1,-4.311439E-1,-1.1780052E0],"categories":[],"categories_nodes":[],"categories_segments":[],"categories_sizes":[],"default_left":[true,true,true,true,true,true,true,true,true,true,true,true,true,true,true,true,true,true,true,true,true,true,true,true,true,true,true,true,true,true,true,true,true,true,true,true,true,true,true,true,true,true,true,true,true,true,true,true,true,true,true,true,false,true,false,true,true,true,true,true,true,true,true,false,false,false,false,false,false,false,false,false,false,false,false,false,false,false,false,false,false,false,false,false,false,false,false,false,false,false,false,false,false,false,false,false,false,false,false,false,false,false,false,false,false,false,false,false,false,false,false,false,false,false,false,false,false,false,false,false,false,false,false],"id":2,"left_children":[1,3,5,7,9,11,13,15,17,19,21,23,25,27,29,31,33,35,37,39,41,43,45,47,49,51,53,55,57,59,61,63,65,67,69,71,73,75,77,79,81,83,85,87,89,91,93,95,97,99,101,103,-1,105,-1,107,109,111,113,115,117,119,121,-1,-1,-1,-1,-1,-1,-1,-1,-1,-1,-1,-1,-1,-1,-1,-1,-1,-1,-1,-1,-1,-1,-1,-1,-1,-1,-1,-1,-1,-1,-1,-1,-1,-1,-1,-1,-1,-1,-1,-1,-1,-1,-1,-1,-1,-1,-1,-1,-1,-1,-1,-1,-1,-1,-1,-1,-1,-1,-1,-1],"loss_changes":[6.152387E3,3.3638733E2,8.175288E2,4.8397128E2,2.0030615E2,1.6815805E2,2.2054785E2,7.6928955E1,7.008751E1,3.0476074E1,6.1184326E1,5.6292892E1,4.2352425E1,4.722888E1,2.6038672E2,3.1471802E1,3.8239914E1,3.0691084E1,9.31294E1,8.9296875E0,1.4906345E1,1.83553E1,3.888231E1,9.867E0,2.8103394E1,7.4298553E0,3.3095088E0,4.0058436E0,2.9761597E1,8.904932E1,3.363843E1,1.027791E0,2.916809E0,1.1136731E1,2.4703064E0,1.2154279E1,7.3738937E0,1.3929962E1,1.240596E1,4.1173096E0,7.325653E0,3.0440025E0,3.1979384E0,4.7340875E0,2.8328724E0,1.2557709E1,5.4600662E1,1.0858116E1,9.185926E0,5.4716644E0,1.2243042E0,1.0213143E1,0E0,8.7684435E-1,0E0,2.1103606E0,3.1884568E0,2.9711662E1,2.2232666E1,9.7322266E1,1.4583427E1,2.2397293E1,2.5054283E0,0E0,0E0,0E0,0E0,0E0,0E0,0E0,0E0,0E0,0E0,0E0,0E0,0E0,0E0,0E0,0E0,0E0,0E0,0E0,0E0,0E0,0E0,0E0,0E0,0E0,0E0,0E0,0E0,0E0,0E0,0E0,0E0,0E0,0E0,0E0,0E0,0E0,0E0,0E0,0E0,0E0,0E0,0E0,0E0,0E0,0E0,0E0,0E0,0E0,0E0,0E0,0E0,0E0,0E0,0E0,0E0,0E0,0E0,0E0,0E0],"parents":[2147483647,0,0,1,1,2,2,3,3,4,4,5,5,6,6,7,7,8,8,9,9,10,10,11,11,12,12,13,13,14,14,15,15,16,16,17,17,18,18,19,19,20,20,21,21,22,22,23,23,24,24,25,25,26,26,27,27,28,28,29,29,30,30,31,31,32,32,33,33,34,34,35,35,36,36,37,37,38,38,39,39,40,40,41,41,42,42,43,43,44,44,45,45,46,46,47,47,48,48,49,49,50,50,51,51,53,53,55,55,56,56,57,57,58,58,59,59,60,60,61,61,62,62],"right_children":[2,4,6,8,10,12,14,16,18,20,22,24,26,28,30,32,34,36,38,40,42,44,46,48,50,52,54,56,58,60,62,64,66,68,70,72,74,76,78,80,82,84,86,88,90,92,94,96,98,100,102,104,-1,106,-1,108,110,112,114,116,118,120,122,-1,-1,-1,-1,-1,-1,-1,-1,-1,-1,-1,-1,-1,-1,-1,-1,-1,-1,-1,-1,-1,-1,-1,-1,-1,-1,-1,-1,-1,-1,-1,-1,-1,-1,-1,-1,-1,-1,-1,-1,-1,-1,-1,-1,-1,-1,-1,-1,-1,-1,-1,-1,-1,-1,-1,-1,-1,-1,-1,-1],"split_conditions":[5.25E1,1.1465E3,1.25E1,9.15E1,2.15E1,1.94395E4,2.945E2,5E-1,3.395E2,3.6825E3,2.6365E3,2.9915E3,5.52995E4,6.55E1,1.630265E5,1.5E0,1.255E2,1.505E2,2.45E1,1.15E1,4.05E1,4.55E1,3.7155E3,5E-1,5E-1,1.2742E5,2.5E0,7E2,8.85E1,1.26E4,4.48106E5,6.5E0,8.45E1,5.25E1,2.25E1,5E-1,9.75E1,1.05E1,9.45E1,4.955E2,2.751E3,5E-1,4.1835E3,1.934E3,1.05E1,3.75E1,1.95E1,9.15E1,6.205E2,4.966E3,3.923E3,1.78895E4,1.7687334E-2,8.41255E4,-1.2182819E-2,9.95E1,5.65E1,2.654E3,3.65E1,1.4905E3,4.83115E4,1.5724E4,5.72172E5,6.554558E-3,-2.1958286E-3,-1.9305544E-2,-1.1224023E-2,-5.7392484E-3,3.4633295E-3,-1.6816186E-2,-1.0608417E-2,2.6778977E-3,-3.0856947E-3,3.8102216E-3,8.717555E-3,-9.685416E-3,-4.174491E-3,6.015873E-4,8.17149E-3,-1.8293845E-2,-1.7951182E-3,-1.3199116E-2,-1.763418E-2,-0E0,-1.1500351E-2,-6.5944754E-3,7.4528265E-3,-8.980778E-4,-5.2221064E-3,-0E0,9.975831E-3,-1.6011368E-2,-9.043797E-3,-1.49831455E-2,3.0257339E-3,-1.9727491E-3,4.623229E-3,3.6409136E-3,-1.1281448E-2,-8.271883E-3,-4.113658E-3,-5.7928837E-3,-1.4974865E-2,1.2705703E-2,-5.7928837E-3,2.4626518E-3,-4.5517683E-3,-2.197605E-3,1.073235E-2,6.668566E-3,-1.0825313E-3,1.015699E-2,2.8571768E-3,-7.0212404E-3,1.1384276E-2,1.3639782E-2,1.7338032E-2,1.0337061E-2,3.7098902E-3,5.943989E-3,-5.3092586E-3,-4.311439E-3,-1.17800515E-2],"split_indices":[0,2,1,2,0,0,0,1,2,2,2,2,2,1,2,2,1,2,0,0,1,0,2,1,1,0,1,2,0,1,2,0,2,2,0,0,1,0,1,1,2,0,2,2,1,0,1,0,2,2,2,2,0,2,0,2,0,2,2,0,2,1,2,0,0,0,0,0,0,0,0,0,0,0,0,0,0,0,0,0,0,0,0,0,0,0,0,0,0,0,0,0,0,0,0,0,0,0,0,0,0,0,0,0,0,0,0,0,0,0,0,0,0,0,0,0,0,0,0,0,0,0,0],"split_type":[0,0,0,0,0,0,0,0,0,0,0,0,0,0,0,0,0,0,0,0,0,0,0,0,0,0,0,0,0,0,0,0,0,0,0,0,0,0,0,0,0,0,0,0,0,0,0,0,0,0,0,0,0,0,0,0,0,0,0,0,0,0,0,0,0,0,0,0,0,0,0,0,0,0,0,0,0,0,0,0,0,0,0,0,0,0,0,0,0,0,0,0,0,0,0,0,0,0,0,0,0,0,0,0,0,0,0,0,0,0,0,0,0,0,0,0,0,0,0,0,0,0,0],"sum_hessian":[6.7974336E3,1.9486868E3,4.8487466E3,1.0611366E3,8.875502E2,3.78714E2,4.4700327E3,3.34161E2,7.269756E2,5.723332E2,3.1521698E2,3.0948117E2,6.923282E1,1.0351348E3,3.434898E3,2.0617517E2,1.2798583E2,4.4024216E2,2.8673346E2,5.3433746E2,3.7995743E1,1.2349733E2,1.9171965E2,1.1824702E2,1.9123416E2,5.973353E1,9.499288E0,5.5749146E1,9.793856E2,3.2831545E3,1.5174342E2,5.4997807E0,2.006754E2,7.649776E1,5.1488083E1,1.5799858E2,2.8224356E2,1.9998671E2,8.674675E1,3.358848E2,1.9845267E2,3.049619E1,7.4995546E0,1.0574879E2,1.774854E1,1.22476166E2,6.924348E1,1.01748505E2,1.6498516E1,1.4249478E2,4.8739388E1,1.4997938E1,4.473559E1,5.2499337E0,4.2493534E0,5.749463E0,4.9999683E1,2.2923528E2,7.501503E2,3.1376655E3,1.4548921E2,1.2974542E2,2.1998005E1,4.2497954E0,1.2499853E0,1.9117662E2,9.498771E0,6.049795E1,1.5999803E1,3.399011E1,1.7497972E1,5.5749588E1,1.02249E2,2.472463E2,3.499726E1,1.23488075E2,7.649863E1,3.9749985E1,4.699677E1,3.341348E2,1.7499944E0,1.1522932E2,8.322335E1,2.5E0,2.799619E1,1.2499307E0,6.249624E0,6.449995E1,4.124884E1,3.5E0,1.4248542E1,7.523014E1,4.724602E1,2.6493881E1,4.2749596E1,4.1249832E1,6.049867E1,5.749922E0,1.0748594E1,5.1746353E1,9.074842E1,3.2498882E0,4.54895E1,1.1748051E1,3.2498882E0,2.9999814E0,2.2499526E0,1.2499939E0,4.499469E0,4.9999676E0,4.4999714E1,1.307361E2,9.849917E1,5.999696E0,7.4415063E2,1.1545228E3,1.9831426E3,9.098998E1,5.4499226E1,1.0949601E2,2.0249413E1,9.249824E0,1.2748181E1],"tree_param":{"num_deleted":"0","num_feature":"3","num_nodes":"123","size_leaf_vector":"0"}},{"base_weights":[6.522827E-1,-8.334884E-1,1.2494892E0,-4.5651203E-1,-1.2832376E0,-1.4716838E-1,1.3678422E0,-1.4412551E0,-2.636958E-3,-1.6323712E0,-6.463096E-1,-4.597996E-1,1.2373021E0,9.6523684E-1,1.4888747E0,-1.8160461E0,-8.282815E-1,2.452782E-1,-3.8282675E-1,-1.6937963E0,-7.47456E-1,-1.0122847E-1,-9.951378E-1,7.717728E-2,-7.905294E-1,1.5434495E0,-6.5103394E-1,7.751944E-2,1.015644E0,1.5475037E0,2.1886873E-1,4.4954616E-1,-1.8800852E0,-3.7571236E-1,-1.4808699E0,-1.0375238E-1,4.4034362E-1,-7.5338644E-1,4.7028446E-1,-1.8039534E0,-1.4992651E0,-1.0486857E0,4.5663673E-1,-2.5922808E-1,8.038489E-1,-1.3289604E0,-3.9423767E-1,1.9367139E-1,-6.113277E-1,-5.6152284E-1,-1.4354436E0,8.5055405E-1,1.7521138E0,-7.862488E-2,-1.2086039E0,7.945445E-1,-1.8884808E-2,6.977048E-1,1.1117514E0,1.5827489E0,7.819544E-1,4.1191375E-1,-8.88195E-1,6.501795E-1,-2.1836373E-1,-1.91225E0,-1.1124083E0,-5.6830245E-1,3.4307805E-1,-1.6658645E0,-1.0509486E0,2.6516163E-1,-3.0551732E-1,3.772342E-1,8.633613E-1,-9.590478E-1,-4.1333744E-1,1.9060121E-1,9.76188E-1,-1.8119129E0,-1.7837009E-1,-1.3071128E0,-1.7466749E0,-0E0,-1.139116E0,-6.5580374E-1,7.3890364E-1,-8.8923864E-2,-5.171297E-1,-0E0,9.883782E-1,-1.5858457E0,-8.9561456E-1,-1.4842845E0,2.9962015E-1,-1.953497E-1,4.57787E-1,3.6099517E-1,-1.117989E0,-8.19143E-1,-4.073055E-1,-5.748774E-1,-1.4832473E0,1.2590991E0,-5.748774E-1,2.444196E-1,-4.5203394E-1,-2.1854028E-1,1.0645813E0,-2.1421155E-1,2.9458302E-1,1.0057498E0,2.8289208E-1,-6.961431E-1,1.1272439E0,1.385723E0,1.7415323E0,5.330364E-1,1.198472E0,5.7586986E-1,-5.981467E-1,-4.8477626E-1,-1.2176615E0],"categories":[],"categories_nodes":[],"categories_segments":[],"categories_sizes":[],"default_left":[true,true,true,true,true,true,true,true,true,true,true,true,true,true,true,true,true,true,true,true,true,true,true,true,true,true,true,true,true,true,true,true,true,true,true,true,true,true,true,true,true,true,true,true,true,true,true,true,true,true,true,true,false,true,false,true,true,true,true,true,true,true,true,false,false,false,false,false,false,false,false,false,false,false,false,false,false,false,false,false,false,false,false,false,false,false,false,false,false,false,false,false,false,false,false,false,false,false,false,false,false,false,false,false,false,false,false,false,false,false,false,false,false,false,false,false,false,false,false,false,false,false,false],"id":3,"left_children":[1,3,5,7,9,11,13,15,17,19,21,23,25,27,29,31,33,35,37,39,41,43,45,47,49,51,53,55,57,59,61,63,65,67,69,71,73,75,77,79,81,83,85,87,89,91,93,95,97,99,101,103,-1,105,-1,107,109,111,113,115,117,119,121,-1,-1,-1,-1,-1,-1,-1,-1,-1,-1,-1,-1,-1,-1,-1,-1,-1,-1,-1,-1,-1,-1,-1,-1,-1,-1,-1,-1,-1,-1,-1,-1,-1,-1,-1,-1,-1,-1,-1,-1,-1,-1,-1,-1,-1,-1,-1,-1,-1,-1,-1,-1,-1,-1,-1,-1,-1,-1,-1,-1],"loss_changes":[6.03194E3,3.2990845E2,8.016533E2,4.7465625E2,1.9647998E2,1.6490088E2,2.163711E2,7.5469604E1,6.8706276E1,2.9886963E1,6.0016953E1,5.5196564E1,4.159488E1,4.6279114E1,2.5541748E2,3.0890137E1,3.753334E1,3.0086475E1,9.130867E1,8.762939E0,1.4621067E1,1.8011261E1,3.8127E1,9.682523E0,2.7582077E1,7.2878113E0,3.2556257E0,3.937697E0,2.9177002E1,8.734717E1,3.3007416E1,1.0129455E0,2.8503418E0,1.0922751E1,2.422638E0,1.191577E1,7.2356834E0,1.365844E1,1.2228903E1,4.0338135E0,7.1961365E0,2.986435E0,3.1533175E0,4.6425414E0,2.780774E0,1.2321823E1,5.3566437E1,1.0646293E1,9.023129E0,5.367077E0,1.1929703E0,1.00388E1,0E0,8.6439145E-1,0E0,2.0789247E0,3.1857402E0,2.9132866E1,2.1819946E1,9.574609E1,1.4547615E1,2.1995697E1,2.466114E0,0E0,0E0,0E0,0E0,0E0,0E0,0E0,0E0,0E0,0E0,0E0,0E0,0E0,0E0,0E0,0E0,0E0,0E0,0E0,0E0,0E0,0E0,0E0,0E0,0E0,0E0,0E0,0E0,0E0,0E0,0E0,0E0,0E0,0E0,0E0,0E0,0E0,0E0,0E0,0E0,0E0,0E0,0E0,0E0,0E0,0E0,0E0,0E0,0E0,0E0,0E0,0E0,0E0,0E0,0E0,0E0,0E0,0E0,0E0,0E0],"parents":[2147483647,0,0,1,1,2,2,3,3,4,4,5,5,6,6,7,7,8,8,9,9,10,10,11,11,12,12,13,13,14,14,15,15,16,16,17,17,18,18,19,19,20,20,21,21,22,22,23,23,24,24,25,25,26,26,27,27,28,28,29,29,30,30,31,31,32,32,33,33,34,34,35,35,36,36,37,37,38,38,39,39,40,40,41,41,42,42,43,43,44,44,45,45,46,46,47,47,48,48,49,49,50,50,51,51,53,53,55,55,56,56,57,57,58,58,59,59,60,60,61,61,62,62],"right_children":[2,4,6,8,10,12,14,16,18,20,22,24,26,28,30,32,34,36,38,40,42,44,46,48,50,52,54,56,58,60,62,64,66,68,70,72,74,76,78,80,82,84,86,88,90,92,94,96,98,100,102,104,-1,106,-1,108,110,112,114,116,118,120,122,-1,-1,-1,-1,-1,-1,-1,-1,-1,-1,-1,-1,-1,-1,-1,-1,-1,-1,-1,-1,-1,-1,-1,-1,-1,-1,-1,-1,-1,-1,-1,-1,-1,-1,-1,-1,-1,-1,-1,-1,-1,-1,-1,-1,-1,-1,-1,-1,-1,-1,-1,-1,-1,-1,-1,-1,-1,-1,-1,-1],"split_conditions":[5.25E1,1.1465E3,1.25E1,9.15E1,2.15E1,1.94395E4,2.945E2,5E-1,3.395E2,3.6825E3,2.6365E3,2.9915E3,5.52995E4,6.55E1,1.630265E5,1.5E0,1.255E2,1.505E2,2.45E1,1.15E1,4.05E1,4.55E1,3.7155E3,5E-1,5E-1,1.2742E5,2.5E0,7E2,8.85E1,1.26E4,4.48106E5,6.5E0,8.45E1,5.25E1,2.25E1,5E-1,9.75E1,1.05E1,1.72E2,4.955E2,2.751E3,5E-1,4.1835E3,1.934E3,1.05E1,3.75E1,1.95E1,9.15E1,6.205E2,4.966E3,3.923E3,1.78895E4,1.7521137E-2,8.41255E4,-1.20860385E-2,9.95E1,5.118E3,2.654E3,3.65E1,2.8185E3,2.15435E5,2.86865E4,6.291605E5,6.501795E-3,-2.1836373E-3,-1.91225E-2,-1.1124083E-2,-5.6830244E-3,3.4307805E-3,-1.6658645E-2,-1.0509486E-2,2.6516162E-3,-3.0551732E-3,3.7723419E-3,8.633613E-3,-9.590478E-3,-4.1333744E-3,1.9060121E-3,9.76188E-3,-1.8119128E-2,-1.7837009E-3,-1.3071128E-2,-1.7466748E-2,-0E0,-1.139116E-2,-6.5580374E-3,7.3890365E-3,-8.892386E-4,-5.171297E-3,-0E0,9.883782E-3,-1.5858456E-2,-8.9561455E-3,-1.4842845E-2,2.9962014E-3,-1.9534968E-3,4.57787E-3,3.6099516E-3,-1.117989E-2,-8.19143E-3,-4.073055E-3,-5.7487735E-3,-1.4832472E-2,1.2590991E-2,-5.7487735E-3,2.444196E-3,-4.5203394E-3,-2.1854027E-3,1.0645812E-2,-2.1421155E-3,2.94583E-3,1.0057498E-2,2.8289207E-3,-6.961431E-3,1.1272439E-2,1.385723E-2,1.7415322E-2,5.330364E-3,1.198472E-2,5.7586986E-3,-5.9814667E-3,-4.8477626E-3,-1.2176615E-2],"split_indices":[0,2,1,2,0,0,0,1,2,2,2,2,2,1,2,2,1,2,0,0,1,0,2,1,1,0,1,2,0,1,2,0,2,2,0,0,1,0,1,1,2,0,2,2,1,0,1,0,2,2,2,2,0,2,0,2,2,2,2,0,0,1,2,0,0,0,0,0,0,0,0,0,0,0,0,0,0,0,0,0,0,0,0,0,0,0,0,0,0,0,0,0,0,0,0,0,0,0,0,0,0,0,0,0,0,0,0,0,0,0,0,0,0,0,0,0,0,0,0,0,0,0,0],"split_type":[0,0,0,0,0,0,0,0,0,0,0,0,0,0,0,0,0,0,0,0,0,0,0,0,0,0,0,0,0,0,0,0,0,0,0,0,0,0,0,0,0,0,0,0,0,0,0,0,0,0,0,0,0,0,0,0,0,0,0,0,0,0,0,0,0,0,0,0,0,0,0,0,0,0,0,0,0,0,0,0,0,0,0,0,0,0,0,0,0,0,0,0,0,0,0,0,0,0,0,0,0,0,0,0,0,0,0,0,0,0,0,0,0,0,0,0,0,0,0,0,0,0,0],"sum_hessian":[6.795818E3,1.9483024E3,4.847515E3,1.0609973E3,8.8730493E2,3.7866977E2,4.4688457E3,3.3405173E2,7.269456E2,5.7212854E2,3.151764E2,3.0945807E2,6.9211716E1,1.0349935E3,3.433852E3,2.0608331E2,1.2796842E2,4.402325E2,2.8671313E2,5.34138E2,3.7990547E1,1.2349404E2,1.9168236E2,1.18243355E2,1.912147E2,5.9713306E1,9.49841E0,5.574841E1,9.792452E2,3.2821167E3,1.5173537E2,5.4995337E0,2.0058379E2,7.649499E1,5.1473442E1,1.5799684E2,2.8223566E2,1.9997035E2,8.674277E1,3.3574344E2,1.9839456E2,3.0491508E1,7.499039E0,1.0574729E2,1.774675E1,1.22446884E2,6.9235466E1,1.01746666E2,1.649669E1,1.4248836E2,4.8726353E1,1.4995404E1,4.4717903E1,5.249852E0,4.248558E0,5.748801E0,4.9999607E1,2.2921721E2,7.5002795E2,3.1366406E3,1.4547597E2,1.297398E2,2.199555E1,4.2495565E0,1.2499774E0,1.9108652E2,9.497259E0,6.0495422E1,1.599956E1,3.3977955E1,1.7495485E1,5.5749084E1,1.02247765E2,2.4724176E2,3.4993896E1,1.2347341E2,7.649695E1,5.6747364E1,2.9995405E1,3.3399344E2,1.7499871E0,1.15203926E2,8.3190636E1,2.5E0,2.7991508E1,1.2498635E0,6.2491755E0,6.449988E1,4.1247417E1,3.5E0,1.424675E1,7.520575E1,4.7241135E1,2.648636E1,4.2749104E1,4.124963E1,6.0497032E1,5.7498255E0,1.0746866E1,5.174188E1,9.0746475E1,3.2497509E0,4.5476604E1,1.1745653E1,3.2497509E0,2.9999585E0,2.2498934E0,1.2499864E0,4.4988146E0,3.0999788E1,1.8999819E1,1.3071904E2,9.849815E1,5.9993234E0,7.440286E2,1.4040973E3,1.7325433E3,9.248506E1,5.2990902E1,1.1199096E2,1.7748852E1,1.0999049E1,1.0996502E1],"tree_param":{"num_deleted":"0","num_feature":"3","num_nodes":"123","size_leaf_vector":"0"}},{"base_weights":[6.459565E-1,-8.254513E-1,1.2374358E0,-4.520724E-1,-1.270998E0,-1.4579277E-1,1.3546747E0,-1.4276537E0,-2.5971094E-3,-1.6169544E0,-6.400647E-1,-4.5537072E-1,1.2255856E0,9.557911E-1,1.4746162E0,-1.7991168E0,-8.203808E-1,2.428601E-1,-3.7904206E-1,-1.6778196E0,-7.403893E-1,-1.0018905E-1,-9.856416E-1,1.5052499E-1,-7.4292225E-1,1.5291227E0,-6.459478E-1,7.6909326E-2,1.005705E0,1.5396105E0,3.4722957E-1,4.4573838E-1,-1.8626074E0,-3.720027E-1,-1.4671468E0,-1.0271895E-1,4.36001E-1,-7.4600506E-1,4.6574047E-1,-1.7870129E0,-1.4850255E0,-1.0387747E0,4.5220613E-1,-2.5669754E-1,7.9644334E-1,-1.3163047E0,-3.9052638E-1,2.521654E-1,-4.4747892E-1,-5.138625E-1,-1.4284072E0,8.426618E-1,1.735907E0,-7.8172125E-2,-1.1990732E0,7.879601E-1,-1.868036E-2,6.9085914E-1,1.1008885E0,1.576034E0,8.529214E-1,5.1469195E-1,-8.801806E-1,6.449566E-1,-2.1715166E-1,-1.8944582E0,-1.1025645E0,-5.627438E-1,3.3985588E-1,-1.650477E0,-1.0412018E0,2.6255983E-1,-3.0249667E-1,3.7348664E-1,8.550784E-1,-9.4968915E-1,-4.0927005E-1,5.771276E-2,8.025188E-1,-1.7948978E0,-1.7723556E-1,-1.2945462E0,-1.7303475E0,-0E0,-1.1283705E0,-6.521879E-1,7.3259646E-1,-8.8048264E-2,-5.1210475E-1,-0E0,9.793023E-1,-1.5708921E0,-8.869685E-1,-1.4705393E0,2.9669723E-1,-2.3571615E-1,4.2927703E-1,3.5792705E-1,-9.870519E-1,-8.979955E-1,-4.0558568E-1,-1.6565522E0,-1.1923227E0,1.2478215E0,-5.70507E-1,2.4258849E-1,-4.4891563E-1,-2.1732742E-1,1.056046E0,6.613986E-1,-1.0697969E-1,9.959476E-1,2.8009558E-1,-6.902273E-1,1.11624E0,1.3428073E0,1.7138048E0,1.0890781E0,4.9750084E-1,6.8329686E-1,-4.6670824E-1,-4.2290175E-1,-1.1571647E0],"categories":[],"categories_nodes":[],"categories_segments":[],"categories_sizes":[],"default_left":[true,true,true,true,true,true,true,true,true,true,true,true,true,true,true,true,true,true,true,true,true,true,true,true,true,true,true,true,true,true,true,true,true,true,true,true,true,true,true,true,true,true,true,true,true,true,true,true,true,true,true,true,false,true,false,true,true,true,true,true,true,true,true,false,false,false,false,false,false,false,false,false,false,false,false,false,false,false,false,false,false,false,false,false,false,false,false,false,false,false,false,false,false,false,false,false,false,false,false,false,false,false,false,false,false,false,false,false,false,false,false,false,false,false,false,false,false,false,false,false,false,false,false],"id":4,"left_children":[1,3,5,7,9,11,13,15,17,19,21,23,25,27,29,31,33,35,37,39,41,43,45,47,49,51,53,55,57,59,61,63,65,67,69,71,73,75,77,79,81,83,85,87,89,91,93,95,97,99,101,103,-1,105,-1,107,109,111,113,115,117,119,121,-1,-1,-1,-1,-1,-1,-1,-1,-1,-1,-1,-1,-1,-1,-1,-1,-1,-1,-1,-1,-1,-1,-1,-1,-1,-1,-1,-1,-1,-1,-1,-1,-1,-1,-1,-1,-1,-1,-1,-1,-1,-1,-1,-1,-1,-1,-1,-1,-1,-1,-1,-1,-1,-1,-1,-1,-1,-1,-1,-1],"loss_changes":[5.9144043E3,3.236189E2,7.8619727E2,4.6559784E2,1.9278638E2,1.6172043E2,2.123623E2,7.407086E1,6.735129E1,2.9320435E1,5.887938E1,5.4196205E1,4.0857056E1,4.536151E1,2.5104395E2,3.0327087E1,3.684754E1,2.9494162E1,8.953114E1,8.606079E0,1.4342096E1,1.767413E1,3.7392365E1,6.2359915E0,3.2347206E1,7.1514587E0,3.2029223E0,3.8717701E0,2.860968E1,7.984326E1,3.9185867E1,9.983355E-1,2.788147E0,1.0713057E1,2.3775177E0,1.1681973E1,7.1006584E0,1.3393837E1,1.20101795E1,3.9536133E0,7.0737E0,2.9303093E0,3.109395E0,4.5528803E0,2.7298555E0,1.2095444E1,5.255759E1,7.5967956E0,6.8699465E0,6.268921E0,8.3680725E-1,9.868198E0,0E0,8.5212016E-1,0E0,2.0480857E0,3.1332858E0,2.8568558E1,2.1416504E1,9.670654E1,1.33645935E1,2.7860775E1,2.4228077E0,0E0,0E0,0E0,0E0,0E0,0E0,0E0,0E0,0E0,0E0,0E0,0E0,0E0,0E0,0E0,0E0,0E0,0E0,0E0,0E0,0E0,0E0,0E0,0E0,0E0,0E0,0E0,0E0,0E0,0E0,0E0,0E0,0E0,0E0,0E0,0E0,0E0,0E0,0E0,0E0,0E0,0E0,0E0,0E0,0E0,0E0,0E0,0E0,0E0,0E0,0E0,0E0,0E0,0E0,0E0,0E0,0E0,0E0,0E0,0E0],"parents":[2147483647,0,0,1,1,2,2,3,3,4,4,5,5,6,6,7,7,8,8,9,9,10,10,11,11,12,12,13,13,14,14,15,15,16,16,17,17,18,18,19,19,20,20,21,21,22,22,23,23,24,24,25,25,26,26,27,27,28,28,29,29,30,30,31,31,32,32,33,33,34,34,35,35,36,36,37,37,38,38,39,39,40,40,41,41,42,42,43,43,44,44,45,45,46,46,47,47,48,48,49,49,50,50,51,51,53,53,55,55,56,56,57,57,58,58,59,59,60,60,61,61,62,62],"right_children":[2,4,6,8,10,12,14,16,18,20,22,24,26,28,30,32,34,36,38,40,42,44,46,48,50,52,54,56,58,60,62,64,66,68,70,72,74,76,78,80,82,84,86,88,90,92,94,96,98,100,102,104,-1,106,-1,108,110,112,114,116,118,120,122,-1,-1,-1,-1,-1,-1,-1,-1,-1,-1,-1,-1,-1,-1,-1,-1,-1,-1,-1,-1,-1,-1,-1,-1,-1,-1,-1,-1,-1,-1,-1,-1,-1,-1,-1,-1,-1,-1,-1,-1,-1,-1,-1,-1,-1,-1,-1,-1,-1,-1,-1,-1,-1,-1,-1,-1,-1,-1,-1,-1],"split_conditions":[5.25E1,1.1465E3,1.25E1,9.15E1,2.15E1,1.94395E4,2.945E2,5E-1,3.395E2,3.6825E3,2.6365E3,2.424E3,5.52995E4,6.55E1,1.412525E5,1.5E0,1.255E2,1.505E2,2.45E1,1.15E1,4.05E1,4.55E1,3.7155E3,5E-1,5E-1,1.2742E5,2.5E0,7E2,8.85E1,9.9605E3,4.48106E5,6.5E0,8.45E1,5.25E1,2.25E1,5E-1,9.75E1,1.05E1,9.45E1,4.955E2,2.751E3,5E-1,4.1835E3,1.934E3,1.05E1,3.75E1,1.95E1,2.47E2,6.205E2,1.025E2,2.81E2,1.78895E4,1.7359069E-2,8.41255E4,-1.1990732E-2,9.95E1,5.65E1,2.654E3,3.65E1,1.4905E3,5.68155E4,2.0009E4,5.72172E5,6.4495658E-3,-2.1715164E-3,-1.8944582E-2,-1.1025644E-2,-5.6274375E-3,3.3985588E-3,-1.650477E-2,-1.0412018E-2,2.6255983E-3,-3.0249667E-3,3.7348664E-3,8.550784E-3,-9.496891E-3,-4.0927003E-3,5.7712756E-4,8.025188E-3,-1.7948978E-2,-1.7723555E-3,-1.2945462E-2,-1.7303474E-2,-0E0,-1.1283705E-2,-6.5218788E-3,7.3259645E-3,-8.804826E-4,-5.1210476E-3,-0E0,9.793023E-3,-1.5708921E-2,-8.869684E-3,-1.47053925E-2,2.9669723E-3,-2.3571614E-3,4.2927703E-3,3.5792706E-3,-9.870519E-3,-8.979955E-3,-4.0558567E-3,-1.6565522E-2,-1.1923227E-2,1.2478215E-2,-5.7050698E-3,2.4258848E-3,-4.4891564E-3,-2.173274E-3,1.0560459E-2,6.6139856E-3,-1.0697969E-3,9.959476E-3,2.8009557E-3,-6.9022733E-3,1.11624E-2,1.3428072E-2,1.7138047E-2,1.089078E-2,4.9750083E-3,6.8329684E-3,-4.6670823E-3,-4.2290175E-3,-1.1571647E-2],"split_indices":[0,2,1,2,0,0,0,1,2,2,2,2,2,1,2,2,1,2,0,0,1,0,2,1,1,0,1,2,0,1,2,0,2,2,0,0,1,0,1,1,2,0,2,2,1,0,1,2,2,0,0,2,0,2,0,2,0,2,2,0,1,1,2,0,0,0,0,0,0,0,0,0,0,0,0,0,0,0,0,0,0,0,0,0,0,0,0,0,0,0,0,0,0,0,0,0,0,0,0,0,0,0,0,0,0,0,0,0,0,0,0,0,0,0,0,0,0,0,0,0,0,0,0],"split_type":[0,0,0,0,0,0,0,0,0,0,0,0,0,0,0,0,0,0,0,0,0,0,0,0,0,0,0,0,0,0,0,0,0,0,0,0,0,0,0,0,0,0,0,0,0,0,0,0,0,0,0,0,0,0,0,0,0,0,0,0,0,0,0,0,0,0,0,0,0,0,0,0,0,0,0,0,0,0,0,0,0,0,0,0,0,0,0,0,0,0,0,0,0,0,0,0,0,0,0,0,0,0,0,0,0,0,0,0,0,0,0,0,0,0,0,0,0,0,0,0,0,0,0],"sum_hessian":[6.7935923E3,1.9477727E3,4.84582E3,1.060806E3,8.869666E2,3.7860876E2,4.467211E3,3.339011E2,7.269049E2,5.718462E2,3.1512042E2,3.0942618E2,6.9182594E1,1.0347986E3,3.4324124E3,2.0595667E2,1.2794441E2,4.402192E2,2.8668573E2,5.3386285E2,3.7983376E1,1.2348952E2,1.916309E2,9.974063E1,2.0968555E2,5.96854E1,9.497196E0,5.57471E1,9.7905145E2,3.2449727E3,1.8743971E2,5.4991956E0,2.0045747E2,7.649117E1,5.145324E1,1.5799445E2,2.8222476E2,1.9994781E2,8.673791E1,3.3554843E2,1.983144E2,3.0485046E1,7.4983296E0,1.0574524E2,1.7744276E1,1.2240651E2,6.92244E1,8.574517E1,1.3995455E1,1.5847845E2,5.1207085E1,1.4991905E1,4.4693493E1,5.249739E0,4.247457E0,5.7478857E0,4.9999214E1,2.2919228E2,7.498592E2,3.080292E3,1.6468076E2,1.6544746E2,2.1992249E1,4.249229E0,1.2499664E0,1.909623E2,9.495171E0,6.0491947E1,1.5999225E1,3.396119E1,1.749205E1,5.5748386E1,1.0224606E2,2.472355E2,3.4989258E1,1.234532E2,7.649461E1,3.9749863E1,4.6988045E1,3.3379846E2,1.7499772E0,1.1516891E2,8.31455E1,2.5E0,2.7985046E1,1.2497696E0,6.24856E0,6.449979E1,4.1245457E1,3.5E0,1.4244275E1,7.517211E1,4.723439E1,2.6475985E1,4.274842E1,2.2748901E1,6.2996273E1,5.7496924E0,8.245763E0,3.3244312E1,1.25234146E2,2.2981594E1,2.8225492E1,1.1742345E1,3.2495604E0,2.9999266E0,2.2498124E0,1.2499757E0,4.49791E0,4.9998784E0,4.4999336E1,1.3069551E2,9.849675E1,5.9988065E0,7.4386035E2,1.1478643E3,1.9324277E3,9.77003E1,6.6980446E1,1.4145006E2,2.3997414E1,9.249259E0,1.274299E1],"tree_param":{"num_deleted":"0","num_feature":"3","num_nodes":"123","size_leaf_vector":"0"}},{"base_weights":[6.397466E-1,-8.1755346E-1,1.2256117E0,-4.4770092E-1,-1.259004E0,-1.4445658E-1,1.3417666E0,-1.4143518E0,-2.5619485E-3,-1.6018956E0,-6.3391054E-1,-4.5101738E-1,1.2141156E0,9.464897E-1,1.4606584E0,-1.7826388E0,-8.1259626E-1,2.4046765E-1,-3.7531537E-1,-1.6622233E0,-7.3342645E-1,-9.916116E-2,-9.763064E-1,7.616229E-2,-7.7578765E-1,1.5151166E0,-6.4092207E-1,7.638756E-2,9.959159E-1,1.5250779E0,3.4372663E-1,4.419685E-1,-1.8456031E0,-3.6833444E-1,-1.4537013E0,-1.0169634E-1,4.317056E-1,-7.3871803E-1,4.6121693E-1,-1.770507E0,-1.4710801E0,-1.0290146E0,4.478262E-1,-2.5419298E-1,7.8913426E-1,-1.3038841E0,-3.8686678E-1,1.9058806E-1,-6.003335E-1,-5.511099E-1,-1.4089345E0,8.3489203E-1,1.7200974E0,-7.772237E-2,-1.189686E0,7.814591E-1,-1.8385088E-2,6.8410045E-1,1.0901971E0,1.5611838E0,8.446445E-1,5.09615E-1,-8.722289E-1,6.397863E-1,-2.1594664E-1,-1.8870139E0,-1.2371285E0,-5.572478E-1,3.3666563E-1,-1.6354426E0,-1.031597E0,2.5998437E-1,-2.9950735E-1,3.6977872E-1,8.4690416E-1,-5.8480906E-1,-1.188782E0,1.8597737E-1,9.592546E-1,-1.7783206E0,-1.7610842E-1,-1.282204E0,-1.7144203E0,-0E0,-1.1177936E0,-6.4859974E-1,7.263594E-1,-8.7181255E-2,-5.07135E-1,-0E0,9.7035235E-1,-1.5562639E0,-8.7843937E-1,-1.4570698E0,2.9380387E-1,-1.9421528E-1,4.5186797E-1,3.548871E-1,-1.0983067E0,-8.05673E-1,-3.987847E-1,-5.587631E-1,-1.45638E0,1.2367319E0,-5.661768E-1,2.4077146E-1,-4.4582206E-1,-2.1612124E-1,1.0476265E0,-2.1182296E-1,2.9203618E-1,9.862881E-1,2.7732766E-1,-6.8437564E-1,1.1054103E0,1.329949E0,1.6978123E0,1.0785688E0,4.9264148E-1,6.765958E-1,-4.622448E-1,-4.754402E-1,-1.1965173E0],"categories":[],"categories_nodes":[],"categories_segments":[],"categories_sizes":[],"default_left":[true,true,true,true,true,true,true,true,true,true,true,true,true,true,true,true,true,true,true,true,true,true,true,true,true,true,true,true,true,true,true,true,true,true,true,true,true,true,true,true,true,true,true,true,true,true,true,true,true,true,true,true,false,true,false,true,true,true,true,true,true,true,true,false,false,false,false,false,false,false,false,false,false,false,false,false,false,false,false,false,false,false,false,false,false,false,false,false,false,false,false,false,false,false,false,false,false,false,false,false,false,false,false,false,false,false,false,false,false,false,false,false,false,false,false,false,false,false,false,false,false,false,false],"id":5,"left_children":[1,3,5,7,9,11,13,15,17,19,21,23,25,27,29,31,33,35,37,39,41,43,45,47,49,51,53,55,57,59,61,63,65,67,69,71,73,75,77,79,81,83,85,87,89,91,93,95,97,99,101,103,-1,105,-1,107,109,111,113,115,117,119,121,-1,-1,-1,-1,-1,-1,-1,-1,-1,-1,-1,-1,-1,-1,-1,-1,-1,-1,-1,-1,-1,-1,-1,-1,-1,-1,-1,-1,-1,-1,-1,-1,-1,-1,-1,-1,-1,-1,-1,-1,-1,-1,-1,-1,-1,-1,-1,-1,-1,-1,-1,-1,-1,-1,-1,-1,-1,-1,-1,-1],"loss_changes":[5.7996963E3,3.1750598E2,7.7117725E2,4.567805E2,1.8921887E2,1.5861868E2,2.085044E2,7.272949E1,6.602652E1,2.8775146E1,5.7770576E1,5.3201744E1,4.013819E1,4.445868E1,2.4638672E2,2.978186E1,3.618164E1,2.8913862E1,8.778589E1,8.458618E0,1.406925E1,1.7343758E1,3.667758E1,9.344144E0,2.6558556E1,7.020523E0,3.15136E0,3.806201E0,2.8058838E1,7.838281E1,3.845063E1,9.8395705E-1,2.737732E0,1.05075445E1,2.3348083E0,1.1452816E1,6.9687386E0,1.3222237E1,1.1847755E1,3.8764648E0,6.9578247E0,2.8755684E0,3.0661564E0,4.4650536E0,2.6800842E0,1.18780365E1,5.1573257E1,1.0417678E1,8.709804E0,5.2419624E0,1.1904144E0,9.701236E0,0E0,8.40028E-1,0E0,2.017827E0,3.124209E0,2.8018211E1,2.102179E1,9.503418E1,1.3108643E1,2.7321167E1,2.3890839E0,0E0,0E0,0E0,0E0,0E0,0E0,0E0,0E0,0E0,0E0,0E0,0E0,0E0,0E0,0E0,0E0,0E0,0E0,0E0,0E0,0E0,0E0,0E0,0E0,0E0,0E0,0E0,0E0,0E0,0E0,0E0,0E0,0E0,0E0,0E0,0E0,0E0,0E0,0E0,0E0,0E0,0E0,0E0,0E0,0E0,0E0,0E0,0E0,0E0,0E0,0E0,0E0,0E0,0E0,0E0,0E0,0E0,0E0,0E0,0E0],"parents":[2147483647,0,0,1,1,2,2,3,3,4,4,5,5,6,6,7,7,8,8,9,9,10,10,11,11,12,12,13,13,14,14,15,15,16,16,17,17,18,18,19,19,20,20,21,21,22,22,23,23,24,24,25,25,26,26,27,27,28,28,29,29,30,30,31,31,32,32,33,33,34,34,35,35,36,36,37,37,38,38,39,39,40,40,41,41,42,42,43,43,44,44,45,45,46,46,47,47,48,48,49,49,50,50,51,51,53,53,55,55,56,56,57,57,58,58,59,59,60,60,61,61,62,62],"right_children":[2,4,6,8,10,12,14,16,18,20,22,24,26,28,30,32,34,36,38,40,42,44,46,48,50,52,54,56,58,60,62,64,66,68,70,72,74,76,78,80,82,84,86,88,90,92,94,96,98,100,102,104,-1,106,-1,108,110,112,114,116,118,120,122,-1,-1,-1,-1,-1,-1,-1,-1,-1,-1,-1,-1,-1,-1,-1,-1,-1,-1,-1,-1,-1,-1,-1,-1,-1,-1,-1,-1,-1,-1,-1,-1,-1,-1,-1,-1,-1,-1,-1,-1,-1,-1,-1,-1,-1,-1,-1,-1,-1,-1,-1,-1,-1,-1,-1,-1,-1,-1,-1,-1],"split_conditions":[5.25E1,1.1465E3,1.25E1,9.15E1,2.15E1,1.94395E4,2.945E2,5E-1,3.395E2,3.6825E3,2.6365E3,2.9915E3,5.52995E4,6.55E1,1.412525E5,1.5E0,1.255E2,1.505E2,2.45E1,1.15E1,4.05E1,4.55E1,3.7155E3,5E-1,5E-1,1.2742E5,2.5E0,7E2,8.85E1,9.9605E3,4.48106E5,6.5E0,8.15E1,5.25E1,2.25E1,5E-1,9.75E1,8.385E2,1.72E2,4.955E2,2.751E3,5E-1,4.1835E3,1.934E3,1.05E1,3.75E1,1.95E1,9.15E1,6.205E2,4.966E3,3.923E3,1.78895E4,1.7200975E-2,8.41255E4,-1.1896859E-2,9.95E1,5.118E3,2.654E3,3.65E1,1.4905E3,5.68155E4,2.0009E4,6.291605E5,6.397863E-3,-2.1594665E-3,-1.887014E-2,-1.2371285E-2,-5.572478E-3,3.3666561E-3,-1.6354425E-2,-1.031597E-2,2.5998438E-3,-2.9950733E-3,3.6977872E-3,8.469041E-3,-5.8480906E-3,-1.18878195E-2,1.8597736E-3,9.592546E-3,-1.7783206E-2,-1.7610842E-3,-1.282204E-2,-1.7144203E-2,-0E0,-1.1177936E-2,-6.4859972E-3,7.2635943E-3,-8.718125E-4,-5.0713494E-3,-0E0,9.7035235E-3,-1.5562639E-2,-8.784394E-3,-1.4570697E-2,2.9380387E-3,-1.9421527E-3,4.51868E-3,3.5488708E-3,-1.0983067E-2,-8.05673E-3,-3.987847E-3,-5.587631E-3,-1.45638E-2,1.2367318E-2,-5.6617674E-3,2.4077145E-3,-4.4582207E-3,-2.1612123E-3,1.0476265E-2,-2.1182296E-3,2.9203617E-3,9.86288E-3,2.7732765E-3,-6.8437564E-3,1.1054103E-2,1.329949E-2,1.6978122E-2,1.0785688E-2,4.9264147E-3,6.765958E-3,-4.622448E-3,-4.7544017E-3,-1.1965173E-2],"split_indices":[0,2,1,2,0,0,0,1,2,2,2,2,2,1,2,2,1,2,0,0,1,0,2,1,1,0,1,2,0,1,2,0,2,2,0,0,1,2,1,1,2,0,2,2,1,0,1,0,2,2,2,2,0,2,0,2,2,2,2,0,1,1,2,0,0,0,0,0,0,0,0,0,0,0,0,0,0,0,0,0,0,0,0,0,0,0,0,0,0,0,0,0,0,0,0,0,0,0,0,0,0,0,0,0,0,0,0,0,0,0,0,0,0,0,0,0,0,0,0,0,0,0,0],"split_type":[0,0,0,0,0,0,0,0,0,0,0,0,0,0,0,0,0,0,0,0,0,0,0,0,0,0,0,0,0,0,0,0,0,0,0,0,0,0,0,0,0,0,0,0,0,0,0,0,0,0,0,0,0,0,0,0,0,0,0,0,0,0,0,0,0,0,0,0,0,0,0,0,0,0,0,0,0,0,0,0,0,0,0,0,0,0,0,0,0,0,0,0,0,0,0,0,0,0,0,0,0,0,0,0,0,0,0,0,0,0,0,0,0,0,0,0,0,0,0,0,0,0,0],"sum_hessian":[6.790781E3,1.9471012E3,4.843679E3,1.060563E3,8.8653815E2,3.7853613E2,4.465143E3,3.337102E2,7.268528E2,5.7148865E2,3.1504953E2,3.0939044E2,6.914569E1,1.0345519E3,3.4305916E3,2.0579622E2,1.2791399E2,4.4020233E2,2.8665042E2,5.3351434E2,3.797429E1,1.2348378E2,1.9156575E2,1.1823396E2,1.9115646E2,5.965004E1,9.495654E0,5.5745724E1,9.788061E2,3.2431746E3,1.8741696E2,5.4987683E0,2.0029745E2,7.648634E1,5.1427647E1,1.5799141E2,2.8221094E2,1.9991928E2,8.673113E1,3.3530148E2,1.9821288E2,3.0476858E1,7.4974313E0,1.05742645E2,1.7741138E1,1.22355354E2,6.921039E1,1.0174295E2,1.649102E1,1.4247012E2,4.8686344E1,1.4987467E1,4.4662575E1,5.2495947E0,4.246059E0,5.7467237E0,4.9999E1,2.2916068E2,7.4964545E2,3.0785242E3,1.6465022E2,1.6542899E2,2.1987978E1,4.248816E0,1.2499524E0,1.8556715E2,1.4730304E1,6.0487545E1,1.59988E1,3.3939953E1,1.7487694E1,5.57475E1,1.0224391E2,2.4722755E2,3.4983376E1,1.5068777E2,4.9231514E1,5.67447E1,2.998643E1,3.335515E2,1.7499646E0,1.1512456E2,8.3088326E1,2.5E0,2.7976858E1,1.2496496E0,6.2477818E0,6.449968E1,4.124297E1,3.5E0,1.42411375E1,7.512951E1,4.7225845E1,2.6462837E1,4.2747555E1,4.1249256E1,6.049369E1,5.7495236E0,1.0741496E1,5.173028E1,9.0739845E1,3.248777E0,4.5437565E1,1.1738149E1,3.2493184E0,2.9998863E0,2.2497087E0,1.2499622E0,4.4967613E0,3.099944E1,1.899956E1,1.3066571E2,9.849497E1,5.9981513E0,7.436473E2,1.1473846E3,1.9311396E3,9.7675606E1,6.697461E1,1.4143248E2,2.3996506E1,1.0997681E1,1.0990297E1],"tree_param":{"num_deleted":"0","num_feature":"3","num_nodes":"123","size_leaf_vector":"0"}},{"base_weights":[6.3365036E-1,-8.0978835E-1,1.2140129E0,-4.4339356E-1,-1.2472473E0,-1.4311789E-1,1.3291072E0,-1.4013419E0,-2.529067E-3,-1.5871811E0,-6.2784463E-1,-4.466959E-1,1.2028835E0,9.3732053E-1,1.4469908E0,-1.7665985E0,-8.04925E-1,2.3810072E-1,-3.7163368E-1,-1.6469932E0,-7.265642E-1,-9.81447E-2,-9.67127E-1,1.4818121E-1,-7.290926E-1,1.5014195E0,-6.359555E-1,7.578724E-2,9.862729E-1,1.5041523E0,2.1046326E-1,4.3823588E-1,-1.8290582E0,-3.647072E-1,-1.4405245E0,-1.0068413E-1,4.2745674E-1,-7.3153114E-1,4.5677513E-1,-1.754419E0,-1.4574187E0,-1.0194005E0,4.4349644E-1,-2.5171417E-1,7.8191936E-1,-1.2916912E0,-3.8325748E-1,2.4793024E-1,-4.3889922E-1,-5.042568E-1,-1.4025006E0,8.2724124E-1,1.7046701E0,-7.7275425E-2,-1.1804386E0,7.750391E-1,-1.81855E-2,6.7742705E-1,1.0796727E0,1.538486E0,7.5936276E-1,3.978562E-1,-8.6442554E-1,6.346677E-1,-2.1474844E-1,-1.8604031E0,-1.0820534E0,-5.51814E-1,3.335072E-1,-1.6207488E0,-1.0221306E0,2.574354E-1,-2.9654878E-1,3.6610997E-1,8.388363E-1,-9.335033E-1,-3.9781561E-1,-1.5327571E-1,6.727361E-1,-1.7621644E0,-1.7498879E-1,-1.2700797E0,-1.6988773E0,-0E0,-1.1073799E0,-6.450389E-1,7.201918E-1,-5.019825E-1,-8.4847555E-2,-0E0,9.615252E-1,-1.5419502E0,-8.7002337E-1,-1.4438663E0,2.9094002E-1,-2.3445879E-1,4.2307633E-1,3.5187462E-1,-9.6896106E-1,-8.8419056E-1,-3.9720646E-1,-1.6295307E0,-1.1681961E0,1.2258245E0,-5.6188613E-1,-3.1419447E-1,4.0377757E-1,-2.149221E-1,1.0393196E0,6.559957E-1,-1.0572428E-1,9.7676766E-1,2.7458826E-1,-6.785869E-1,1.0947502E0,1.345795E0,1.693883E0,5.119946E-1,1.1736535E0,5.5723566E-1,-5.8379143E-1,-4.7111222E-1,-1.1859775E0],"categories":[],"categories_nodes":[],"categories_segments":[],"categories_sizes":[],"default_left":[true,true,true,true,true,true,true,true,true,true,true,true,true,true,true,true,true,true,true,true,true,true,true,true,true,true,true,true,true,true,true,true,true,true,true,true,true,true,true,true,true,true,true,true,true,true,true,true,true,true,true,true,false,true,false,true,true,true,true,true,true,true,true,false,false,false,false,false,false,false,false,false,false,false,false,false,false,false,false,false,false,false,false,false,false,false,false,false,false,false,false,false,false,false,false,false,false,false,false,false,false,false,false,false,false,false,false,false,false,false,false,false,false,false,false,false,false,false,false,false,false,false,false],"id":6,"left_children":[1,3,5,7,9,11,13,15,17,19,21,23,25,27,29,31,33,35,37,39,41,43,45,47,49,51,53,55,57,59,61,63,65,67,69,71,73,75,77,79,81,83,85,87,89,91,93,95,97,99,101,103,-1,105,-1,107,109,111,113,115,117,119,121,-1,-1,-1,-1,-1,-1,-1,-1,-1,-1,-1,-1,-1,-1,-1,-1,-1,-1,-1,-1,-1,-1,-1,-1,-1,-1,-1,-1,-1,-1,-1,-1,-1,-1,-1,-1,-1,-1,-1,-1,-1,-1,-1,-1,-1,-1,-1,-1,-1,-1,-1,-1,-1,-1,-1,-1,-1,-1,-1,-1],"loss_changes":[5.68774E3,3.1156506E2,7.565161E2,4.4819983E2,1.8577124E2,1.555844E2,2.0479883E2,7.1443054E1,6.472941E1,2.8250244E1,5.6689476E1,5.2242943E1,3.94376E1,4.358612E1,2.420791E2,2.9253601E1,3.553479E1,2.8345285E1,8.608352E1,8.319946E0,1.3802355E1,1.701999E1,3.5981888E1,6.0077085E0,3.1180687E1,6.894699E0,3.1009073E0,3.742763E0,2.7523743E1,8.264697E1,3.1099775E1,9.69805E-1,2.6957397E0,1.0306142E1,2.2943573E0,1.1228214E1,6.8398094E0,1.3168785E1,1.1660446E1,3.802124E0,6.8480835E0,2.8221588E0,3.0235891E0,4.4150033E0,2.631423E0,1.1669174E1,5.0612637E1,7.427812E0,6.6242695E0,6.134178E0,8.7078094E-1,9.5378E0,0E0,8.39115E-1,0E0,1.9881334E0,3.0791314E0,2.7481361E1,2.0635742E1,9.1512695E1,1.4403931E1,2.077504E1,2.3479347E0,0E0,0E0,0E0,0E0,0E0,0E0,0E0,0E0,0E0,0E0,0E0,0E0,0E0,0E0,0E0,0E0,0E0,0E0,0E0,0E0,0E0,0E0,0E0,0E0,0E0,0E0,0E0,0E0,0E0,0E0,0E0,0E0,0E0,0E0,0E0,0E0,0E0,0E0,0E0,0E0,0E0,0E0,0E0,0E0,0E0,0E0,0E0,0E0,0E0,0E0,0E0,0E0,0E0,0E0,0E0,0E0,0E0,0E0,0E0,0E0],"parents":[2147483647,0,0,1,1,2,2,3,3,4,4,5,5,6,6,7,7,8,8,9,9,10,10,11,11,12,12,13,13,14,14,15,15,16,16,17,17,18,18,19,19,20,20,21,21,22,22,23,23,24,24,25,25,26,26,27,27,28,28,29,29,30,30,31,31,32,32,33,33,34,34,35,35,36,36,37,37,38,38,39,39,40,40,41,41,42,42,43,43,44,44,45,45,46,46,47,47,48,48,49,49,50,50,51,51,53,53,55,55,56,56,57,57,58,58,59,59,60,60,61,61,62,62],"right_children":[2,4,6,8,10,12,14,16,18,20,22,24,26,28,30,32,34,36,38,40,42,44,46,48,50,52,54,56,58,60,62,64,66,68,70,72,74,76,78,80,82,84,86,88,90,92,94,96,98,100,102,104,-1,106,-1,108,110,112,114,116,118,120,122,-1,-1,-1,-1,-1,-1,-1,-1,-1,-1,-1,-1,-1,-1,-1,-1,-1,-1,-1,-1,-1,-1,-1,-1,-1,-1,-1,-1,-1,-1,-1,-1,-1,-1,-1,-1,-1,-1,-1,-1,-1,-1,-1,-1,-1,-1,-1,-1,-1,-1,-1,-1,-1,-1,-1,-1,-1,-1,-1,-1],"split_conditions":[5.25E1,1.1465E3,1.25E1,9.15E1,2.15E1,1.94395E4,2.945E2,5E-1,3.395E2,3.6825E3,2.6365E3,2.424E3,5.52995E4,6.55E1,1.630265E5,1.5E0,1.255E2,1.505E2,2.45E1,1.15E1,4.05E1,4.55E1,3.7155E3,5E-1,5E-1,1.2742E5,2.5E0,7E2,8.85E1,1.26E4,4.48106E5,6.5E0,8.45E1,5.25E1,2.25E1,5E-1,9.75E1,1.05E1,2.3E1,4.955E2,2.751E3,5E-1,4.1835E3,4.95E1,1.05E1,3.75E1,1.95E1,2.47E2,6.205E2,1.025E2,2.81E2,1.78895E4,1.7046701E-2,5E-1,-1.1804386E-2,9.95E1,5.65E1,2.654E3,3.65E1,2.8185E3,2.15435E5,2.86865E4,6.291605E5,6.346677E-3,-2.1474843E-3,-1.860403E-2,-1.0820534E-2,-5.5181403E-3,3.335072E-3,-1.6207486E-2,-1.0221306E-2,2.574354E-3,-2.9654878E-3,3.6610996E-3,8.388363E-3,-9.335033E-3,-3.978156E-3,-1.5327571E-3,6.727361E-3,-1.7621644E-2,-1.7498878E-3,-1.2700797E-2,-1.6988773E-2,-0E0,-1.1073799E-2,-6.450389E-3,7.2019175E-3,-5.019825E-3,-8.4847555E-4,-0E0,9.615252E-3,-1.5419502E-2,-8.700234E-3,-1.4438662E-2,2.9094E-3,-2.3445878E-3,4.2307633E-3,3.5187462E-3,-9.68961E-3,-8.841906E-3,-3.9720642E-3,-1.6295306E-2,-1.1681961E-2,1.2258245E-2,-5.6188614E-3,-3.1419445E-3,4.0377756E-3,-2.149221E-3,1.0393196E-2,6.5599573E-3,-1.0572429E-3,9.767677E-3,2.7458826E-3,-6.7858687E-3,1.0947501E-2,1.345795E-2,1.693883E-2,5.119946E-3,1.1736535E-2,5.5723563E-3,-5.837914E-3,-4.7111223E-3,-1.1859775E-2],"split_indices":[0,2,1,2,0,0,0,1,2,2,2,2,2,1,2,2,1,2,0,0,1,0,2,1,1,0,1,2,0,1,2,0,2,2,0,0,1,0,1,1,2,0,2,1,1,0,1,2,2,0,0,2,0,1,0,2,0,2,2,0,0,1,2,0,0,0,0,0,0,0,0,0,0,0,0,0,0,0,0,0,0,0,0,0,0,0,0,0,0,0,0,0,0,0,0,0,0,0,0,0,0,0,0,0,0,0,0,0,0,0,0,0,0,0,0,0,0,0,0,0,0,0,0],"split_type":[0,0,0,0,0,0,0,0,0,0,0,0,0,0,0,0,0,0,0,0,0,0,0,0,0,0,0,0,0,0,0,0,0,0,0,0,0,0,0,0,0,0,0,0,0,0,0,0,0,0,0,0,0,0,0,0,0,0,0,0,0,0,0,0,0,0,0,0,0,0,0,0,0,0,0,0,0,0,0,0,0,0,0,0,0,0,0,0,0,0,0,0,0,0,0,0,0,0,0,0,0,0,0,0,0,0,0,0,0,0,0,0,0,0,0,0,0,0,0,0,0,0,0],"sum_hessian":[6.787393E3,1.9462974E3,4.8410957E3,1.0602751E3,8.860222E2,3.7844403E2,4.462652E3,3.3348077E2,7.267943E2,5.7105804E2,3.1496414E2,3.093428E2,6.910124E1,1.0342545E3,3.4283972E3,2.0560342E2,1.27877335E2,4.4018204E2,2.8661227E2,5.330947E2,3.796335E1,1.2347687E2,1.9148727E2,9.973124E1,2.0961156E2,5.9607452E1,9.493792E0,5.5743782E1,9.785107E2,3.276707E3,1.5169014E2,5.4982543E0,2.0010518E2,7.648052E1,5.1396812E1,1.5798775E2,2.821943E2,1.998887E2,8.672357E1,3.350041E2,1.9809064E2,3.0467001E1,7.4963484E0,1.0573951E2,1.7737358E1,1.22293755E2,6.919351E1,8.574095E1,1.3990291E1,1.5845561E2,5.1155956E1,1.4982118E1,4.4625336E1,5.2494206E0,4.244371E0,5.7453203E0,4.999846E1,2.2912265E2,7.4938806E2,3.1312932E3,1.4541382E2,1.2970723E2,2.1982916E1,4.2483187E0,1.2499357E0,1.9061632E2,9.488865E0,6.0482235E1,1.5998289E1,3.3914368E1,1.7482445E1,5.5746437E1,1.0224132E2,2.47218E2,3.497629E1,1.2340432E2,7.648439E1,2.2749784E1,6.3973785E1,3.3325415E2,1.7499495E0,1.15071144E2,8.301949E1,2.5E0,2.7967001E1,1.249504E0,6.2468443E0,4.1495632E1,6.424387E1,3.5E0,1.4237357E1,7.507819E1,4.721556E1,2.6447E1,4.2746513E1,2.2748411E1,6.299254E1,5.7493196E0,8.240971E0,3.3236378E1,1.2521923E2,2.295697E1,2.8198984E1,1.1733091E1,3.249026E0,3.7496004E0,1.4998205E0,1.249946E0,4.495374E0,4.999668E0,4.499879E1,1.306298E2,9.849283E1,5.9973607E0,7.433907E2,1.4022157E3,1.7290775E3,9.244928E1,5.2964542E1,1.11961586E2,1.774564E1,1.0996916E1,1.0985999E1],"tree_param":{"num_deleted":"0","num_feature":"3","num_nodes":"123","size_leaf_vector":"0"}},{"base_weights":[6.2766373E-1,-8.021532E-1,1.2026289E0,-4.3914944E-1,-1.235718E0,-1.4180979E-1,1.3166901E0,-1.3886068E0,-2.4992793E-3,-1.5727981E0,-6.218623E-1,-4.4244754E-1,1.1919193E0,9.2828864E-1,1.4336033E0,-1.7509696E0,-7.9736406E-1,2.3575886E-1,-3.68007E-1,-1.6321152E0,-7.198006E-1,-9.713825E-2,-9.580991E-1,7.516185E-2,-7.614268E-1,1.4880203E0,-6.307556E-1,7.527434E-2,9.7677195E-1,1.4969902E0,3.3576947E-1,4.345401E-1,-1.8129452E0,-3.6112013E-1,-1.4276068E0,-9.968233E-2,4.2325374E-1,-7.244248E-1,4.5230985E-1,-1.7387323E0,-1.4440312E0,-1.0099291E0,4.3921566E-1,-2.492575E-1,7.747967E-1,-1.2797184E0,-3.7969735E-1,1.8755767E-1,-5.896311E-1,-5.4092234E-1,-1.383425E0,8.1970626E-1,1.6896106E0,-7.635953E-2,-1.1713275E0,7.4157584E-1,-2.186919E-2,6.7083704E-1,1.0693107E0,1.5325315E0,8.2786065E-1,4.9844268E-1,-8.56724E-1,6.296002E-1,-2.1355732E-1,-1.8537529E0,-1.2141081E0,-5.464408E-1,3.303799E-1,-1.6063827E0,-1.012799E0,2.54912E-1,-2.9362044E-1,3.624798E-1,8.3087265E-1,-5.7184154E-1,-1.170822E0,1.8080448E-1,9.4384235E-1,-1.7464126E0,-1.7387642E-1,-1.2581658E0,-1.6837046E0,-0E0,-1.0971258E0,-6.415048E-1,7.1409184E-1,-8.394381E-2,-4.9970898E-1,-0E0,9.528179E-1,-1.5279392E0,-8.6171883E-1,-1.43092E0,2.881051E-1,-1.930774E-1,4.4603825E-1,3.488895E-1,-1.0792073E0,-7.925056E-1,-3.9044973E-1,-5.4306215E-1,-1.4305496E0,1.2150943E0,-5.5763483E-1,2.3997755E-1,-4.4223875E-1,1.4156647E-1,9.8328173E-1,-3.5715088E-1,1.6280784E-1,9.673827E-1,2.718768E-1,-6.7286E-1,1.0842546E0,1.3046631E0,1.6672574E0,1.0593234E0,4.7979766E-1,6.6237634E-1,-4.5536593E-1,-4.1060704E-1,-1.1273091E0],"categories":[],"categories_nodes":[],"categories_segments":[],"categories_sizes":[],"default_left":[true,true,true,true,true,true,true,true,true,true,true,true,true,true,true,true,true,true,true,true,true,true,true,true,true,true,true,true,true,true,true,true,true,true,true,true,true,true,true,true,true,true,true,true,true,true,true,true,true,true,true,true,false,true,false,true,true,true,true,true,true,true,true,false,false,false,false,false,false,false,false,false,false,false,false,false,false,false,false,false,false,false,false,false,false,false,false,false,false,false,false,false,false,false,false,false,false,false,false,false,false,false,false,false,false,false,false,false,false,false,false,false,false,false,false,false,false,false,false,false,false,false,false],"id":7,"left_children":[1,3,5,7,9,11,13,15,17,19,21,23,25,27,29,31,33,35,37,39,41,43,45,47,49,51,53,55,57,59,61,63,65,67,69,71,73,75,77,79,81,83,85,87,89,91,93,95,97,99,101,103,-1,105,-1,107,109,111,113,115,117,119,121,-1,-1,-1,-1,-1,-1,-1,-1,-1,-1,-1,-1,-1,-1,-1,-1,-1,-1,-1,-1,-1,-1,-1,-1,-1,-1,-1,-1,-1,-1,-1,-1,-1,-1,-1,-1,-1,-1,-1,-1,-1,-1,-1,-1,-1,-1,-1,-1,-1,-1,-1,-1,-1,-1,-1,-1,-1,-1,-1,-1],"loss_changes":[5.5784277E3,3.057865E2,7.422534E2,4.398402E2,1.8243933E2,1.526317E2,2.01229E2,7.020709E1,6.3460655E1,2.7744385E1,5.5635666E1,5.1288494E1,3.8744102E1,4.2727173E1,2.3796533E2,2.8741455E1,3.490621E1,2.7788193E1,8.440451E1,8.189697E0,1.3541248E1,1.6702602E1,3.530458E1,9.018704E0,2.5594986E1,6.773697E0,3.0548587E0,3.6889367E0,2.7003723E1,7.577197E1,3.6964104E1,9.558761E-1,2.6583252E0,1.0108736E1,2.2560196E0,1.100804E1,6.713806E0,1.30108795E1,1.15352745E1,3.7304688E0,6.7442017E0,2.7700462E0,2.98168E0,4.3772964E0,2.5838404E0,1.1468384E1,4.9674934E1,1.0194109E1,8.409449E0,5.1208305E0,1.1884842E0,9.3777895E0,0E0,8.294416E-1,0E0,9.120457E-1,3.1846213E0,2.6957542E1,2.0257996E1,9.222461E1,1.2830238E1,2.6315655E1,2.310732E0,0E0,0E0,0E0,0E0,0E0,0E0,0E0,0E0,0E0,0E0,0E0,0E0,0E0,0E0,0E0,0E0,0E0,0E0,0E0,0E0,0E0,0E0,0E0,0E0,0E0,0E0,0E0,0E0,0E0,0E0,0E0,0E0,0E0,0E0,0E0,0E0,0E0,0E0,0E0,0E0,0E0,0E0,0E0,0E0,0E0,0E0,0E0,0E0,0E0,0E0,0E0,0E0,0E0,0E0,0E0,0E0,0E0,0E0,0E0,0E0],"parents":[2147483647,0,0,1,1,2,2,3,3,4,4,5,5,6,6,7,7,8,8,9,9,10,10,11,11,12,12,13,13,14,14,15,15,16,16,17,17,18,18,19,19,20,20,21,21,22,22,23,23,24,24,25,25,26,26,27,27,28,28,29,29,30,30,31,31,32,32,33,33,34,34,35,35,36,36,37,37,38,38,39,39,40,40,41,41,42,42,43,43,44,44,45,45,46,46,47,47,48,48,49,49,50,50,51,51,53,53,55,55,56,56,57,57,58,58,59,59,60,60,61,61,62,62],"right_children":[2,4,6,8,10,12,14,16,18,20,22,24,26,28,30,32,34,36,38,40,42,44,46,48,50,52,54,56,58,60,62,64,66,68,70,72,74,76,78,80,82,84,86,88,90,92,94,96,98,100,102,104,-1,106,-1,108,110,112,114,116,118,120,122,-1,-1,-1,-1,-1,-1,-1,-1,-1,-1,-1,-1,-1,-1,-1,-1,-1,-1,-1,-1,-1,-1,-1,-1,-1,-1,-1,-1,-1,-1,-1,-1,-1,-1,-1,-1,-1,-1,-1,-1,-1,-1,-1,-1,-1,-1,-1,-1,-1,-1,-1,-1,-1,-1,-1,-1,-1,-1,-1,-1],"split_conditions":[5.25E1,1.1465E3,1.25E1,9.15E1,2.15E1,1.94395E4,2.945E2,5E-1,3.395E2,3.6825E3,2.6365E3,2.9915E3,5.52995E4,6.55E1,1.412525E5,1.5E0,1.255E2,1.505E2,2.45E1,1.15E1,4.05E1,4.55E1,3.7155E3,5E-1,5E-1,1.2742E5,2.5E0,5.75E1,8.85E1,9.9605E3,4.48106E5,6.5E0,8.15E1,5.25E1,2.25E1,5E-1,9.75E1,8.385E2,1.72E2,4.955E2,2.751E3,5E-1,4.1835E3,1.934E3,1.05E1,3.75E1,1.95E1,9.15E1,6.205E2,4.966E3,3.923E3,1.78895E4,1.6896106E-2,8.41255E4,-1.1713275E-2,3.85E1,8.35E1,2.654E3,3.65E1,1.4905E3,5.68155E4,2.0009E4,5.72172E5,6.2960023E-3,-2.1355732E-3,-1.8537529E-2,-1.2141081E-2,-5.4644076E-3,3.3037988E-3,-1.6063826E-2,-1.012799E-2,2.5491198E-3,-2.9362042E-3,3.624798E-3,8.308726E-3,-5.718415E-3,-1.170822E-2,1.8080447E-3,9.438423E-3,-1.7464126E-2,-1.7387641E-3,-1.2581658E-2,-1.6837046E-2,-0E0,-1.0971257E-2,-6.415048E-3,7.140918E-3,-8.3943806E-4,-4.9970895E-3,-0E0,9.528179E-3,-1.5279392E-2,-8.617188E-3,-1.43091995E-2,2.881051E-3,-1.930774E-3,4.4603823E-3,3.488895E-3,-1.0792073E-2,-7.925056E-3,-3.9044973E-3,-5.4306216E-3,-1.4305496E-2,1.2150943E-2,-5.5763484E-3,2.3997754E-3,-4.4223876E-3,1.4156647E-3,9.832817E-3,-3.5715087E-3,1.6280783E-3,9.673827E-3,2.718768E-3,-6.7286002E-3,1.0842546E-2,1.3046631E-2,1.6672574E-2,1.0593234E-2,4.7979765E-3,6.623763E-3,-4.5536594E-3,-4.1060704E-3,-1.1273091E-2],"split_indices":[0,2,1,2,0,0,0,1,2,2,2,2,2,1,2,2,1,2,0,0,1,0,2,1,1,0,1,0,0,1,2,0,2,2,0,0,1,2,1,1,2,0,2,2,1,0,1,0,2,2,2,2,0,2,0,1,0,2,2,0,1,1,2,0,0,0,0,0,0,0,0,0,0,0,0,0,0,0,0,0,0,0,0,0,0,0,0,0,0,0,0,0,0,0,0,0,0,0,0,0,0,0,0,0,0,0,0,0,0,0,0,0,0,0,0,0,0,0,0,0,0,0,0],"split_type":[0,0,0,0,0,0,0,0,0,0,0,0,0,0,0,0,0,0,0,0,0,0,0,0,0,0,0,0,0,0,0,0,0,0,0,0,0,0,0,0,0,0,0,0,0,0,0,0,0,0,0,0,0,0,0,0,0,0,0,0,0,0,0,0,0,0,0,0,0,0,0,0,0,0,0,0,0,0,0,0,0,0,0,0,0,0,0,0,0,0,0,0,0,0,0,0,0,0,0,0,0,0,0,0,0,0,0,0,0,0,0,0,0,0,0,0,0,0,0,0,0,0,0],"sum_hessian":[6.7834526E3,1.9453591E3,4.8380933E3,1.0599363E3,8.8542285E2,3.783416E2,4.4597515E3,3.332133E2,7.26723E2,5.705568E2,3.14866E2,3.0929193E2,6.904967E1,1.0339086E3,3.425843E3,2.0537862E2,1.2783466E2,4.4015842E2,2.865646E2,5.3260626E2,3.7950596E1,1.234701E2,1.9139589E2,1.18220024E2,1.9107191E2,5.9557858E1,9.491813E0,5.574179E1,9.7816675E2,3.2384949E3,1.8734831E2,5.497656E0,1.9988095E2,7.6473755E1,5.136091E1,1.579835E2,2.8217493E2,1.9984937E2,8.671524E1,3.3465796E2,1.979483E2,3.0455511E1,7.4950852E0,1.0573715E2,1.7732952E1,1.2222203E2,6.917385E1,1.0173729E2,1.6482742E1,1.4244383E2,4.862808E1,1.4975881E1,4.4581974E1,5.249412E0,4.2424E0,6.2486777E0,4.9493114E1,2.2907837E2,7.490884E2,3.0739302E3,1.6456473E2,1.653713E2,2.1977001E1,4.24774E0,1.2499163E0,1.8516718E2,1.4713784E1,6.047606E1,1.5997692E1,3.388458E1,1.747633E1,5.5745193E1,1.02238304E2,2.4720688E2,3.4968044E1,1.5064003E2,4.9209328E1,5.6741215E1,2.9974028E1,3.3290802E2,1.7499318E0,1.1500895E2,8.2939354E1,2.5E0,2.7955511E1,1.249333E0,6.2457523E0,6.4498955E1,4.1238194E1,3.5E0,1.4232951E1,7.501845E1,4.7203583E1,2.6428556E1,4.2745296E1,4.124843E1,6.0488857E1,5.7490816E0,1.073366E1,5.1713875E1,9.072996E1,3.2471058E0,4.5380974E1,1.1727197E1,3.2486844E0,2.9998586E0,2.2495537E0,2.249709E0,3.9989688E0,1.7247076E1,3.224604E1,1.3058803E2,9.849034E1,5.996438E0,7.43092E2,1.1461218E3,1.9278082E3,9.761021E1,6.695452E1,1.4137787E2,2.3993444E1,9.247691E0,1.272931E1],"tree_param":{"num_deleted":"0","num_feature":"3","num_nodes":"123","size_leaf_vector":"0"}},{"base_weights":[6.217841E-1,-7.9464227E-1,1.1914552E0,-4.349635E-1,-1.224412E0,-1.4050646E-1,1.3045052E0,-1.3761431E0,-2.4672155E-3,-1.5587353E0,-6.1596614E-1,-4.3822944E-1,1.1811374E0,9.429865E-1,1.4281173E0,-1.7357455E0,-7.8991044E-1,2.3344183E-1,-3.6441344E-1,-1.6175772E0,-7.131327E-1,-9.614408E-2,-9.492181E-1,1.4587805E-1,-7.156125E-1,1.4749086E0,-6.2590456E-1,7.775571E-2,9.8891675E-1,1.4936056E0,3.2809576E-1,4.3088052E-1,-1.7972567E0,-3.5757238E-1,-1.4149402E0,-9.869099E-2,4.1909626E-1,-7.174146E-1,4.479665E-1,-1.7234328E0,-1.4309084E0,-1.0005962E0,4.3498296E-1,-2.468289E-1,7.677639E-1,-1.2679589E0,-3.761852E-1,2.4376976E-1,-4.305308E-1,-4.948566E-1,-1.3775574E0,8.1228393E-1,1.6749057E0,-7.592198E-2,-1.162349E0,8.0838096E-1,-2.1055376E-2,6.64329E-1,1.0753703E0,1.5306667E0,8.199165E-1,4.8916274E-1,-8.490789E-1,6.245828E-1,-2.1237296E-1,-1.8281574E0,-1.0621717E0,-5.411272E-1,3.272838E-1,-1.5923336E0,-1.0035988E0,2.5241405E-1,-2.9072237E-1,3.5888812E-1,8.230107E-1,-9.177323E-1,-3.866406E-1,5.162254E-2,7.7540123E-1,-1.731051E0,-1.7277113E-1,-1.2464557E0,-1.6688887E0,-0E0,-1.087026E0,-6.379976E-1,7.0805836E-1,-4.9461737E-1,-8.165988E-2,-0E0,9.442273E-1,-1.5142202E0,-8.53523E-1,-1.4182224E0,2.8529882E-1,-2.3319514E-1,4.1697744E-1,3.4593168E-1,-9.513661E-1,-8.70694E-1,-3.8900918E-1,-1.6036304E0,-1.1448762E0,1.204536E0,-5.5342203E-1,-3.1146526E-1,4.019693E-1,-3.8140581E-3,1.0307195E0,-2.389696E-1,3.1723094E-1,9.581301E-1,2.691931E-1,-7.170047E-1,1.0894489E0,1.340169E0,1.6756161E0,6.163947E-1,1.2185627E0,6.513599E-1,-4.5102224E-1,-4.6207055E-1,-1.1658083E0],"categories":[],"categories_nodes":[],"categories_segments":[],"categories_sizes":[],"default_left":[true,true,true,true,true,true,true,true,true,true,true,true,true,true,true,true,true,true,true,true,true,true,true,true,true,true,true,true,true,true,true,true,true,true,true,true,true,true,true,true,true,true,true,true,true,true,true,true,true,true,true,true,false,true,false,true,true,true,true,true,true,true,true,false,false,false,false,false,false,false,false,false,false,false,false,false,false,false,false,false,false,false,false,false,false,false,false,false,false,false,false,false,false,false,false,false,false,false,false,false,false,false,false,false,false,false,false,false,false,false,false,false,false,false,false,false,false,false,false,false,false,false,false],"id":8,"left_children":[1,3,5,7,9,11,13,15,17,19,21,23,25,27,29,31,33,35,37,39,41,43,45,47,49,51,53,55,57,59,61,63,65,67,69,71,73,75,77,79,81,83,85,87,89,91,93,95,97,99,101,103,-1,105,-1,107,109,111,113,115,117,119,121,-1,-1,-1,-1,-1,-1,-1,-1,-1,-1,-1,-1,-1,-1,-1,-1,-1,-1,-1,-1,-1,-1,-1,-1,-1,-1,-1,-1,-1,-1,-1,-1,-1,-1,-1,-1,-1,-1,-1,-1,-1,-1,-1,-1,-1,-1,-1,-1,-1,-1,-1,-1,-1,-1,-1,-1,-1,-1,-1,-1],"loss_changes":[5.4716865E3,3.001693E2,7.2833154E2,4.317025E2,1.7921497E2,1.4973463E2,1.9784814E2,6.902063E1,6.2216064E1,2.725708E1,5.4607185E1,5.036823E1,3.807827E1,4.517578E1,2.3865967E2,2.8244873E1,3.429518E1,2.7242386E1,8.277196E1,8.066895E0,1.3285767E1,1.6391584E1,3.4644943E1,5.7880545E0,3.007991E1,6.6573334E0,3.006483E0,4.239349E0,2.9626709E1,7.6967285E1,3.6025482E1,9.421654E-1,2.6152954E0,9.915254E0,2.2196884E0,1.079223E1,6.5906067E0,1.29507065E1,1.1342075E1,3.661438E0,6.645752E0,2.7191849E0,2.9404175E0,4.327877E0,2.537303E0,1.1275253E1,4.875941E1,7.2627707E0,6.388506E0,6.0034294E0,9.039383E-1,9.221109E0,0E0,8.2863605E-1,0E0,1.2667146E0,3.9454648E0,2.644635E1,2.2285461E1,7.971973E1,1.267775E1,2.5584076E1,2.2769299E0,0E0,0E0,0E0,0E0,0E0,0E0,0E0,0E0,0E0,0E0,0E0,0E0,0E0,0E0,0E0,0E0,0E0,0E0,0E0,0E0,0E0,0E0,0E0,0E0,0E0,0E0,0E0,0E0,0E0,0E0,0E0,0E0,0E0,0E0,0E0,0E0,0E0,0E0,0E0,0E0,0E0,0E0,0E0,0E0,0E0,0E0,0E0,0E0,0E0,0E0,0E0,0E0,0E0,0E0,0E0,0E0,0E0,0E0,0E0,0E0],"parents":[2147483647,0,0,1,1,2,2,3,3,4,4,5,5,6,6,7,7,8,8,9,9,10,10,11,11,12,12,13,13,14,14,15,15,16,16,17,17,18,18,19,19,20,20,21,21,22,22,23,23,24,24,25,25,26,26,27,27,28,28,29,29,30,30,31,31,32,32,33,33,34,34,35,35,36,36,37,37,38,38,39,39,40,40,41,41,42,42,43,43,44,44,45,45,46,46,47,47,48,48,49,49,50,50,51,51,53,53,55,55,56,56,57,57,58,58,59,59,60,60,61,61,62,62],"right_children":[2,4,6,8,10,12,14,16,18,20,22,24,26,28,30,32,34,36,38,40,42,44,46,48,50,52,54,56,58,60,62,64,66,68,70,72,74,76,78,80,82,84,86,88,90,92,94,96,98,100,102,104,-1,106,-1,108,110,112,114,116,118,120,122,-1,-1,-1,-1,-1,-1,-1,-1,-1,-1,-1,-1,-1,-1,-1,-1,-1,-1,-1,-1,-1,-1,-1,-1,-1,-1,-1,-1,-1,-1,-1,-1,-1,-1,-1,-1,-1,-1,-1,-1,-1,-1,-1,-1,-1,-1,-1,-1,-1,-1,-1,-1,-1,-1,-1,-1,-1,-1,-1,-1],"split_conditions":[5.25E1,1.1465E3,1.25E1,9.15E1,2.15E1,1.94395E4,3.335E2,5E-1,3.395E2,3.6825E3,2.6365E3,2.424E3,5.52995E4,6.55E1,1.412525E5,1.5E0,1.255E2,1.505E2,2.45E1,1.15E1,4.05E1,4.55E1,3.7155E3,5E-1,5E-1,1.2742E5,2.5E0,7E2,8.85E1,9.9605E3,4.48106E5,6.5E0,8.45E1,5.25E1,2.25E1,5E-1,9.75E1,1.05E1,9.45E1,4.955E2,2.751E3,5E-1,4.1835E3,4.95E1,1.05E1,3.75E1,1.95E1,2.47E2,6.205E2,1.025E2,2.81E2,1.78895E4,1.6749056E-2,5E-1,-1.162349E-2,9.95E1,5.118E3,2.654E3,3.65E1,2.8185E3,2.377815E5,2.0009E4,6.291605E5,6.2458282E-3,-2.1237296E-3,-1.8281573E-2,-1.0621717E-2,-5.411272E-3,3.272838E-3,-1.5923334E-2,-1.0035988E-2,2.5241405E-3,-2.9072235E-3,3.588881E-3,8.230107E-3,-9.1773225E-3,-3.866406E-3,5.162254E-4,7.754012E-3,-1.731051E-2,-1.7277112E-3,-1.2464557E-2,-1.6688887E-2,-0E0,-1.087026E-2,-6.379976E-3,7.0805834E-3,-4.9461736E-3,-8.165988E-4,-0E0,9.442273E-3,-1.5142202E-2,-8.53523E-3,-1.4182224E-2,2.8529882E-3,-2.3319514E-3,4.1697742E-3,3.4593167E-3,-9.513661E-3,-8.706939E-3,-3.8900918E-3,-1.6036304E-2,-1.1448762E-2,1.2045359E-2,-5.53422E-3,-3.1146526E-3,4.019693E-3,-3.814058E-5,1.0307195E-2,-2.389696E-3,3.1723094E-3,9.581301E-3,2.691931E-3,-7.170047E-3,1.08944895E-2,1.3401689E-2,1.675616E-2,6.163947E-3,1.2185627E-2,6.513599E-3,-4.5102225E-3,-4.6207053E-3,-1.1658083E-2],"split_indices":[0,2,1,2,0,0,0,1,2,2,2,2,2,1,2,2,1,2,0,0,1,0,2,1,1,0,1,2,0,1,2,0,2,2,0,0,1,0,1,1,2,0,2,1,1,0,1,2,2,0,0,2,0,1,0,2,2,2,2,0,0,1,2,0,0,0,0,0,0,0,0,0,0,0,0,0,0,0,0,0,0,0,0,0,0,0,0,0,0,0,0,0,0,0,0,0,0,0,0,0,0,0,0,0,0,0,0,0,0,0,0,0,0,0,0,0,0,0,0,0,0,0,0],"split_type":[0,0,0,0,0,0,0,0,0,0,0,0,0,0,0,0,0,0,0,0,0,0,0,0,0,0,0,0,0,0,0,0,0,0,0,0,0,0,0,0,0,0,0,0,0,0,0,0,0,0,0,0,0,0,0,0,0,0,0,0,0,0,0,0,0,0,0,0,0,0,0,0,0,0,0,0,0,0,0,0,0,0,0,0,0,0,0,0,0,0,0,0,0,0,0,0,0,0,0,0,0,0,0,0,0,0,0,0,0,0,0,0,0,0,0,0,0,0,0,0,0,0,0],"sum_hessian":[6.778971E3,1.9442949E3,4.8346763E3,1.0595547E3,8.847402E2,3.7822028E2,4.456456E3,3.3290955E2,7.2664514E2,5.6998706E2,3.147531E2,3.0922946E2,6.899082E1,1.1377096E3,3.3187463E3,2.0512343E2,1.27786125E2,4.4013156E2,2.8651358E2,5.3205096E2,3.7936096E1,1.23461136E2,1.9129199E2,9.971845E1,2.09511E2,5.950146E1,9.489364E0,5.7485966E1,1.0802236E3,3.1319329E3,1.868133E2,5.496975E0,1.9962646E2,7.646605E1,5.1320076E1,1.5797867E2,2.821529E2,1.9980833E2,8.6705246E1,3.3426447E2,1.977865E2,3.044245E1,7.4936476E0,1.0573319E2,1.772794E1,1.2214049E2,6.91515E1,8.5735115E1,1.3983337E1,1.5842464E2,5.108637E1,1.4968783E1,4.4532677E1,5.2492094E0,4.2401543E0,5.992842E0,5.1493122E1,2.2902802E2,8.511956E2,2.9674167E3,1.6451625E2,1.648431E2,2.1970203E1,4.247081E0,1.2498941E0,1.901463E2,9.48016E0,6.0469036E1,1.5997014E1,3.38507E1,1.7469376E1,5.5743786E1,1.0223488E2,2.4719423E2,3.4958664E1,1.2333924E2,7.646909E1,3.9748844E1,4.69564E1,3.3251456E2,1.7499113E0,1.1493826E2,8.2848236E1,2.5E0,2.794245E1,1.2491374E0,6.2445107E0,4.149192E1,6.424128E1,3.5E0,1.422794E1,7.495053E1,4.7189957E1,2.640758E1,4.274392E1,2.2747793E1,6.2987324E1,5.7488112E0,8.234527E0,3.3225025E1,1.2519961E2,2.2922699E1,2.8163671E1,1.17204895E1,3.2482946E0,3.7494364E0,1.4997733E0,1.4991921E0,4.49365E0,3.1497158E1,1.9995966E1,1.3054051E2,9.84875E1,6.244649E0,8.449509E2,1.286672E3,1.6807448E3,1.1059842E2,5.391784E1,1.4085118E2,2.399191E1,1.0994735E1,1.097547E1],"tree_param":{"num_deleted":"0","num_feature":"3","num_nodes":"123","size_leaf_vector":"0"}},{"base_weights":[6.1600757E-1,-7.872525E-1,1.1804821E0,-4.3083522E-1,-1.2133181E0,-1.3923275E-1,1.2925465E0,-1.3639354E0,-2.4338302E-3,-1.5449803E0,-6.101492E-1,-4.340822E-1,1.1706083E0,9.104974E-1,1.4076613E0,-1.7209022E0,-7.825616E-1,2.3114921E-1,-3.6086333E-1,-1.6033659E0,-7.065584E-1,-9.515949E-2,-9.4047946E-1,7.417548E-2,-7.474305E-1,1.4620743E0,-6.2081975E-1,7.411802E-2,9.580726E-1,1.463498E0,2.0240334E-1,4.2725652E-1,-1.7819678E0,-3.540639E-1,-1.4025158E0,-9.770982E-2,4.1498333E-1,-7.104815E-1,4.4364083E-1,-1.7085048E0,-1.4180415E0,-9.9139845E-1,4.3079764E-1,-2.4442181E-1,7.6081955E-1,-1.2564056E0,-3.7271976E-1,1.8457898E-1,-5.7920706E-1,-5.309535E-1,-1.3588513E0,8.0497134E-1,1.6605421E0,-7.501844E-2,-1.1534997E0,7.35368E-1,-2.2271184E-2,6.5790087E-1,1.0489138E0,1.4970473E0,7.372077E-1,3.8433504E-1,-8.415743E-1,6.196147E-1,-2.1119565E-1,-1.8222499E0,-1.1918628E0,-5.3587276E-1,3.2421812E-1,-1.5785891E0,-9.9452686E-1,2.4994126E-1,-2.87854E-1,3.55334E-1,8.152481E-1,-5.591851E-1,-1.1533582E0,-1.5403433E-1,6.553774E-1,-1.7160635E0,-1.7167318E-1,-1.2349436E0,-1.6544161E0,-0E0,-1.0770769E0,-6.3451666E-1,7.020903E-1,-8.078554E-2,-4.9241707E-1,-0E0,9.357512E-1,-1.5007833E0,-8.454331E-1,-1.4057653E0,2.8252113E-1,-1.9193691E-1,4.4029605E-1,3.4300044E-1,-1.0606605E0,-7.796297E-1,-3.8229603E-1,-5.277537E-1,-1.4056895E0,1.1941446E0,-5.4924726E-1,2.3917884E-1,-4.386942E-1,1.4053304E-1,9.749797E-1,-3.5388255E-1,1.60402E-1,9.4900614E-1,2.665368E-1,-6.611693E-1,1.0635926E0,1.3083813E0,1.6493694E0,9.776427E-1,3.2566953E-1,5.392982E-1,-5.698426E-1,-4.5787778E-1,-1.1557457E0],"categories":[],"categories_nodes":[],"categories_segments":[],"categories_sizes":[],"default_left":[true,true,true,true,true,true,true,true,true,true,true,true,true,true,true,true,true,true,true,true,true,true,true,true,true,true,true,true,true,true,true,true,true,true,true,true,true,true,true,true,true,true,true,true,true,true,true,true,true,true,true,true,false,true,false,true,true,true,true,true,true,true,true,false,false,false,false,false,false,false,false,false,false,false,false,false,false,false,false,false,false,false,false,false,false,false,false,false,false,false,false,false,false,false,false,false,false,false,false,false,false,false,false,false,false,false,false,false,false,false,false,false,false,false,false,false,false,false,false,false,false,false,false],"id":9,"left_children":[1,3,5,7,9,11,13,15,17,19,21,23,25,27,29,31,33,35,37,39,41,43,45,47,49,51,53,55,57,59,61,63,65,67,69,71,73,75,77,79,81,83,85,87,89,91,93,95,97,99,101,103,-1,105,-1,107,109,111,113,115,117,119,121,-1,-1,-1,-1,-1,-1,-1,-1,-1,-1,-1,-1,-1,-1,-1,-1,-1,-1,-1,-1,-1,-1,-1,-1,-1,-1,-1,-1,-1,-1,-1,-1,-1,-1,-1,-1,-1,-1,-1,-1,-1,-1,-1,-1,-1,-1,-1,-1,-1,-1,-1,-1,-1,-1,-1,-1,-1,-1,-1,-1],"loss_changes":[5.367415E3,2.9470325E2,7.147798E2,4.2377216E2,1.7609595E2,1.4691478E2,1.9459326E2,6.7879456E1,6.0996445E1,2.6786865E1,5.360414E1,4.945272E1,3.7418495E1,4.1075684E1,2.2990918E2,2.7762878E1,3.370092E1,2.6707567E1,8.116673E1,7.951538E0,1.3035761E1,1.6086668E1,3.4002335E1,8.705615E0,2.4686394E1,6.545334E0,2.9623752E0,3.632738E0,2.598706E1,7.8552734E1,2.9310347E1,9.286697E-1,2.590393E0,9.725615E0,2.1852417E0,1.0580688E1,6.47015E0,1.2807037E1,1.119854E1,3.5948486E0,6.55249E0,2.6695309E0,2.8997893E0,4.291433E0,2.4917831E0,1.1089355E1,4.7865364E1,9.975489E0,8.121375E0,5.0034676E0,1.1870804E0,9.067657E0,0E0,8.1899387E-1,0E0,8.960135E-1,3.1153095E0,2.5947311E1,1.9513428E1,8.761279E1,1.4158813E1,1.962613E1,2.238882E0,0E0,0E0,0E0,0E0,0E0,0E0,0E0,0E0,0E0,0E0,0E0,0E0,0E0,0E0,0E0,0E0,0E0,0E0,0E0,0E0,0E0,0E0,0E0,0E0,0E0,0E0,0E0,0E0,0E0,0E0,0E0,0E0,0E0,0E0,0E0,0E0,0E0,0E0,0E0,0E0,0E0,0E0,0E0,0E0,0E0,0E0,0E0,0E0,0E0,0E0,0E0,0E0,0E0,0E0,0E0,0E0,0E0,0E0,0E0,0E0],"parents":[2147483647,0,0,1,1,2,2,3,3,4,4,5,5,6,6,7,7,8,8,9,9,10,10,11,11,12,12,13,13,14,14,15,15,16,16,17,17,18,18,19,19,20,20,21,21,22,22,23,23,24,24,25,25,26,26,27,27,28,28,29,29,30,30,31,31,32,32,33,33,34,34,35,35,36,36,37,37,38,38,39,39,40,40,41,41,42,42,43,43,44,44,45,45,46,46,47,47,48,48,49,49,50,50,51,51,53,53,55,55,56,56,57,57,58,58,59,59,60,60,61,61,62,62],"right_children":[2,4,6,8,10,12,14,16,18,20,22,24,26,28,30,32,34,36,38,40,42,44,46,48,50,52,54,56,58,60,62,64,66,68,70,72,74,76,78,80,82,84,86,88,90,92,94,96,98,100,102,104,-1,106,-1,108,110,112,114,116,118,120,122,-1,-1,-1,-1,-1,-1,-1,-1,-1,-1,-1,-1,-1,-1,-1,-1,-1,-1,-1,-1,-1,-1,-1,-1,-1,-1,-1,-1,-1,-1,-1,-1,-1,-1,-1,-1,-1,-1,-1,-1,-1,-1,-1,-1,-1,-1,-1,-1,-1,-1,-1,-1,-1,-1,-1,-1,-1,-1,-1,-1],"split_conditions":[5.25E1,1.1465E3,1.25E1,9.15E1,2.15E1,1.94395E4,2.945E2,5E-1,3.395E2,3.6825E3,2.6365E3,2.9915E3,5.52995E4,6.55E1,1.630265E5,1.5E0,1.255E2,1.505E2,2.45E1,1.15E1,4.05E1,4.55E1,3.7155E3,5E-1,5E-1,1.2742E5,2.5E0,5.75E1,8.85E1,1.26E4,4.48106E5,6.5E0,8.15E1,5.25E1,2.25E1,5E-1,9.75E1,8.385E2,2.3E1,4.955E2,2.751E3,5E-1,4.1835E3,1.934E3,1.05E1,3.75E1,1.95E1,9.15E1,6.205E2,4.966E3,3.923E3,1.78895E4,1.660542E-2,8.41255E4,-1.1534997E-2,3.85E1,8.35E1,2.654E3,3.65E1,2.8185E3,4.83115E4,2.86865E4,6.291605E5,6.1961473E-3,-2.1119565E-3,-1.8222498E-2,-1.1918628E-2,-5.3587276E-3,3.2421811E-3,-1.578589E-2,-9.945269E-3,2.4994125E-3,-2.8785397E-3,3.55334E-3,8.15248E-3,-5.5918507E-3,-1.1533582E-2,-1.5403433E-3,6.553774E-3,-1.7160635E-2,-1.7167317E-3,-1.2349436E-2,-1.6544161E-2,-0E0,-1.0770769E-2,-6.3451664E-3,7.0209033E-3,-8.078554E-4,-4.9241707E-3,-0E0,9.357512E-3,-1.5007833E-2,-8.454331E-3,-1.4057653E-2,2.8252113E-3,-1.9193691E-3,4.4029607E-3,3.4300042E-3,-1.0606605E-2,-7.796297E-3,-3.8229602E-3,-5.277537E-3,-1.4056895E-2,1.1941446E-2,-5.4924726E-3,2.3917884E-3,-4.386942E-3,1.4053304E-3,9.749797E-3,-3.5388255E-3,1.60402E-3,9.490062E-3,2.665368E-3,-6.6116927E-3,1.0635925E-2,1.3083813E-2,1.6493693E-2,9.7764265E-3,3.256695E-3,5.3929817E-3,-5.6984257E-3,-4.5787776E-3,-1.1557457E-2],"split_indices":[0,2,1,2,0,0,0,1,2,2,2,2,2,1,2,2,1,2,0,0,1,0,2,1,1,0,1,0,0,1,2,0,2,2,0,0,1,2,1,1,2,0,2,2,1,0,1,0,2,2,2,2,0,2,0,1,0,2,2,0,2,1,2,0,0,0,0,0,0,0,0,0,0,0,0,0,0,0,0,0,0,0,0,0,0,0,0,0,0,0,0,0,0,0,0,0,0,0,0,0,0,0,0,0,0,0,0,0,0,0,0,0,0,0,0,0,0,0,0,0,0,0,0],"split_type":[0,0,0,0,0,0,0,0,0,0,0,0,0,0,0,0,0,0,0,0,0,0,0,0,0,0,0,0,0,0,0,0,0,0,0,0,0,0,0,0,0,0,0,0,0,0,0,0,0,0,0,0,0,0,0,0,0,0,0,0,0,0,0,0,0,0,0,0,0,0,0,0,0,0,0,0,0,0,0,0,0,0,0,0,0,0,0,0,0,0,0,0,0,0,0,0,0,0,0,0,0,0,0,0,0,0,0,0,0,0,0,0,0,0,0,0,0,0,0,0,0,0,0],"sum_hessian":[6.7739707E3,1.9431033E3,4.830867E3,1.059124E3,8.8397925E2,3.780896E2,4.452778E3,3.325701E2,7.2655396E2,5.6935095E2,3.1462833E2,3.091643E2,6.8925285E1,1.033072E3,3.4197058E3,2.048382E2,1.2773192E2,4.4010156E2,2.864524E2,5.31431E2,3.79199E1,1.2345236E2,1.9117596E2,1.1820177E2,1.9096254E2,5.9438477E1,9.486813E0,5.5738476E1,9.773335E2,3.2680889E3,1.5161676E2,5.4962134E0,1.9934198E2,7.645745E1,5.127447E1,1.5797327E2,2.821283E2,1.9975885E2,8.669354E1,3.338252E2,1.9760583E2,3.042786E1,7.492039E0,1.0573002E2,1.7722338E1,1.2204944E2,6.9126526E1,1.0172977E2,1.6472004E1,1.4240993E2,4.8552628E1,1.4960851E1,4.4477627E1,5.249172E0,4.2376404E0,6.2478395E0,4.9490635E1,2.2897182E2,7.483617E2,3.122778E3,1.4531096E2,1.2965408E2,2.1962677E1,4.2463446E0,1.2498691E0,1.8464929E2,1.4692684E1,6.0461193E1,1.5996256E1,3.3812866E1,1.7461603E1,5.5742214E1,1.0223105E2,2.4718011E2,3.4948185E1,1.5058E2,4.917884E1,2.2749725E1,6.3943813E1,3.3207532E2,1.7498887E0,1.1485932E2,8.274651E1,2.5E0,2.792786E1,1.2489173E0,6.243122E0,6.4497795E1,4.1232227E1,3.5E0,1.4222338E1,7.48747E1,4.717474E1,2.638415E1,4.2742374E1,4.1247166E1,6.04826E1,5.748508E0,1.0723496E1,5.169291E1,9.071701E1,3.2447805E0,4.5307846E1,1.1712993E1,3.2478578E0,2.9998147E0,2.2493575E0,2.2496347E0,3.9982047E0,1.72461E1,3.2244534E1,1.3048747E2,9.8484344E1,5.9941187E0,7.4236755E2,1.3992529E3,1.723525E3,9.0854805E1,5.445615E1,1.1191357E2,1.7740509E1,1.099362E1,1.0969058E1],"tree_param":{"num_deleted":"0","num_feature":"3","num_nodes":"123","size_leaf_vector":"0"}},{"base_weights":[6.1032915E-1,-7.7998364E-1,1.1697055E0,-4.2677042E-1,-1.2024326E0,-1.3796313E-1,1.2808043E0,-1.3519804E0,-2.4110524E-3,-1.5439751E0,-6.2605894E-1,-4.2996356E-1,1.1602468E0,9.2502034E-1,1.402585E0,-1.7064339E0,-7.75315E-1,2.2888067E-1,-3.5737538E-1,-1.6057374E0,-6.343487E-1,-9.928398E-2,-9.643316E-1,1.436144E-1,-7.024669E-1,1.4495077E0,-6.160798E-1,7.622241E-2,9.7011894E-1,1.4749631E0,4.3598792E-1,4.236678E-1,-1.7670718E0,-3.5059378E-1,-1.3903259E0,-9.6738845E-2,4.1091442E-1,-7.036415E-1,4.3932134E-1,-1.6939349E0,-1.437875E0,-9.287419E-1,5.024861E-1,-2.4010152E-1,7.539612E-1,-1.4706026E0,-6.294772E-1,2.3968238E-1,-4.223651E-1,-4.8565567E-1,-1.3535165E0,7.977659E-1,1.6465076E0,-7.459036E-2,-1.1447766E0,8.0101734E-1,-2.1757726E-2,6.763284E-1,1.0623428E0,1.3788722E0,1.7149361E0,7.099975E-1,-2.270326E-1,6.146952E-1,-2.1002492E-1,-1.8070767E0,-1.1815494E0,-5.306762E-1,3.2118237E-1,-1.5651394E0,-9.8557967E-1,2.4749365E-1,-2.8501529E-1,3.5181713E-1,8.0758286E-1,-9.023581E-1,-3.7573606E-1,1.7316547E-1,9.216203E-1,-1.7014368E0,-1.7058235E-1,-1.2762992E0,-1.6487331E0,-1.550563E-1,-1.088171E0,-6.310616E-1,7.951797E-1,-3.718858E-1,-1.1474481E-2,-0E0,9.273863E-1,-3.4307572E-1,-1.5178477E0,-1.1110444E0,2.8309563E-1,-2.3192513E-1,4.109779E-1,3.400955E-1,-9.342427E-1,-8.574943E-1,-3.809887E-1,-1.5787793E0,-1.1223137E0,1.183916E0,-5.4511005E-1,-3.0876797E-1,4.0016612E-1,-5.6843543E-3,1.0222489E0,-2.371293E-1,3.1264228E-1,9.4779813E-1,3.3284637E-1,-6.622461E-1,1.0758462E0,1.4146825E0,6.32354E-1,1.7378349E0,-1.6280389E-1,1.0646003E0,2.5156844E-1,-9.400406E-3,-1.0987638E0],"categories":[],"categories_nodes":[],"categories_segments":[],"categories_sizes":[],"default_left":[true,true,true,true,true,true,true,true,true,true,true,true,true,true,true,true,true,true,true,true,true,true,true,true,true,true,true,true,true,true,true,true,true,true,true,true,true,true,true,true,true,true,true,true,true,true,true,true,true,true,true,true,false,true,false,true,true,true,true,true,true,true,true,false,false,false,false,false,false,false,false,false,false,false,false,false,false,false,false,false,false,false,false,false,false,false,false,false,false,false,false,false,false,false,false,false,false,false,false,false,false,false,false,false,false,false,false,false,false,false,false,false,false,false,false,false,false,false,false,false,false,false,false],"id":10,"left_children":[1,3,5,7,9,11,13,15,17,19,21,23,25,27,29,31,33,35,37,39,41,43,45,47,49,51,53,55,57,59,61,63,65,67,69,71,73,75,77,79,81,83,85,87,89,91,93,95,97,99,101,103,-1,105,-1,107,109,111,113,115,117,119,121,-1,-1,-1,-1,-1,-1,-1,-1,-1,-1,-1,-1,-1,-1,-1,-1,-1,-1,-1,-1,-1,-1,-1,-1,-1,-1,-1,-1,-1,-1,-1,-1,-1,-1,-1,-1,-1,-1,-1,-1,-1,-1,-1,-1,-1,-1,-1,-1,-1,-1,-1,-1,-1,-1,-1,-1,-1,-1,-1,-1],"loss_changes":[5.265578E3,2.8938013E2,7.015425E2,4.1604004E2,1.7308179E2,1.4414691E2,1.9149854E2,6.6782715E1,5.980634E1,3.013269E1,5.8825195E1,4.8568207E1,3.6784966E1,4.3474243E1,2.3114258E2,2.7295288E1,3.3122787E1,2.618353E1,7.9591034E1,5.2418213E0,1.2818886E1,1.5850824E1,3.3189987E1,5.576677E0,2.9039574E1,6.4374466E0,2.9159536E0,4.170475E0,2.854773E1,6.870068E1,4.2349403E1,9.1538346E-1,2.550293E0,9.539718E0,2.152565E0,1.0373348E1,6.3523445E0,1.2739136E1,1.1095819E1,3.5306396E0,4.206543E0,3.4906769E0,3.2358916E0,3.391335E0,2.4472466E0,3.7071075E0,5.431354E1,7.101551E0,6.162154E0,5.876484E0,9.3631744E-1,8.917355E0,0E0,8.182992E-1,0E0,1.2534142E0,3.8544948E0,2.4004166E1,1.9816467E1,5.8072754E1,3.7996338E1,2.648233E1,1.30164E1,0E0,0E0,0E0,0E0,0E0,0E0,0E0,0E0,0E0,0E0,0E0,0E0,0E0,0E0,0E0,0E0,0E0,0E0,0E0,0E0,0E0,0E0,0E0,0E0,0E0,0E0,0E0,0E0,0E0,0E0,0E0,0E0,0E0,0E0,0E0,0E0,0E0,0E0,0E0,0E0,0E0,0E0,0E0,0E0,0E0,0E0,0E0,0E0,0E0,0E0,0E0,0E0,0E0,0E0,0E0,0E0,0E0,0E0,0E0,0E0],"parents":[2147483647,0,0,1,1,2,2,3,3,4,4,5,5,6,6,7,7,8,8,9,9,10,10,11,11,12,12,13,13,14,14,15,15,16,16,17,17,18,18,19,19,20,20,21,21,22,22,23,23,24,24,25,25,26,26,27,27,28,28,29,29,30,30,31,31,32,32,33,33,34,34,35,35,36,36,37,37,38,38,39,39,40,40,41,41,42,42,43,43,44,44,45,45,46,46,47,47,48,48,49,49,50,50,51,51,53,53,55,55,56,56,57,57,58,58,59,59,60,60,61,61,62,62],"right_children":[2,4,6,8,10,12,14,16,18,20,22,24,26,28,30,32,34,36,38,40,42,44,46,48,50,52,54,56,58,60,62,64,66,68,70,72,74,76,78,80,82,84,86,88,90,92,94,96,98,100,102,104,-1,106,-1,108,110,112,114,116,118,120,122,-1,-1,-1,-1,-1,-1,-1,-1,-1,-1,-1,-1,-1,-1,-1,-1,-1,-1,-1,-1,-1,-1,-1,-1,-1,-1,-1,-1,-1,-1,-1,-1,-1,-1,-1,-1,-1,-1,-1,-1,-1,-1,-1,-1,-1,-1,-1,-1,-1,-1,-1,-1,-1,-1,-1,-1,-1,-1,-1,-1],"split_conditions":[5.25E1,1.1465E3,1.25E1,9.15E1,2.05E1,1.94395E4,3.335E2,5E-1,3.395E2,3.6825E3,2.6365E3,2.424E3,5.52995E4,6.55E1,1.20162E5,1.5E0,1.255E2,1.505E2,2.45E1,1.15E1,4.05E1,4.55E1,1.85E1,5E-1,5E-1,1.2742E5,2.5E0,7E2,9.45E1,2.023335E5,2.63931E5,6.5E0,8.15E1,5.25E1,2.25E1,5E-1,9.75E1,1.05E1,1.72E2,4.955E2,2.751E3,4.062E3,4.1835E3,3.35E1,1.05E1,2.7365E3,3.731E3,2.47E2,6.205E2,1.025E2,2.81E2,1.78895E4,1.6465075E-2,5E-1,-1.1447766E-2,9.95E1,5.118E3,2.654E3,3.65E1,9.682E3,3.78682E5,7.5921E4,5.72172E5,6.1469516E-3,-2.1002493E-3,-1.8070767E-2,-1.1815494E-2,-5.3067617E-3,3.2118235E-3,-1.5651394E-2,-9.855797E-3,2.4749364E-3,-2.8501528E-3,3.5181711E-3,8.075829E-3,-9.023581E-3,-3.7573604E-3,1.7316546E-3,9.216202E-3,-1.7014368E-2,-1.7058235E-3,-1.2762992E-2,-1.648733E-2,-1.5505629E-3,-1.088171E-2,-6.310616E-3,7.951797E-3,-3.718858E-3,-1.14744806E-4,-0E0,9.2738625E-3,-3.4307572E-3,-1.5178476E-2,-1.1110444E-2,2.8309561E-3,-2.3192512E-3,4.109779E-3,3.4009549E-3,-9.342427E-3,-8.574943E-3,-3.8098868E-3,-1.5787793E-2,-1.1223137E-2,1.183916E-2,-5.4511004E-3,-3.0876796E-3,4.001661E-3,-5.6843543E-5,1.0222488E-2,-2.371293E-3,3.1264226E-3,9.477981E-3,3.3284638E-3,-6.622461E-3,1.0758461E-2,1.4146824E-2,6.32354E-3,1.7378349E-2,-1.6280388E-3,1.0646003E-2,2.5156843E-3,-9.4004055E-5,-1.0987638E-2],"split_indices":[0,2,1,2,0,0,0,1,2,2,2,2,2,1,2,2,1,2,0,0,1,0,1,1,1,0,1,2,0,0,2,0,2,2,0,0,1,0,1,1,2,2,2,0,1,2,2,2,2,0,0,2,0,1,0,2,2,2,2,1,1,0,2,0,0,0,0,0,0,0,0,0,0,0,0,0,0,0,0,0,0,0,0,0,0,0,0,0,0,0,0,0,0,0,0,0,0,0,0,0,0,0,0,0,0,0,0,0,0,0,0,0,0,0,0,0,0,0,0,0,0,0,0],"split_type":[0,0,0,0,0,0,0,0,0,0,0,0,0,0,0,0,0,0,0,0,0,0,0,0,0,0,0,0,0,0,0,0,0,0,0,0,0,0,0,0,0,0,0,0,0,0,0,0,0,0,0,0,0,0,0,0,0,0,0,0,0,0,0,0,0,0,0,0,0,0,0,0,0,0,0,0,0,0,0,0,0,0,0,0,0,0,0,0,0,0,0,0,0,0,0,0,0,0,0,0,0,0,0,0,0,0,0,0,0,0,0,0,0,0,0,0,0,0,0,0,0,0,0],"sum_hessian":[6.7684624E3,1.941795E3,4.826667E3,1.0586549E3,8.831402E2,3.7794077E2,4.4487266E3,3.321967E2,7.264582E2,5.534832E2,3.2965695E2,3.0908786E2,6.885291E1,1.1366338E3,3.3120925E3,2.0452448E2,1.2767221E2,4.4006854E2,2.8638968E2,5.175753E2,3.59079E1,1.2941658E2,2.0024037E2,9.970242E1,2.0938542E2,5.9369106E1,9.483807E0,5.748084E1,1.079153E3,3.0808733E3,2.3121938E2,5.4953737E0,1.990291E2,7.644797E1,5.122424E1,1.5796732E2,2.8210123E2,1.9970796E2,8.668171E1,3.3334158E2,1.8423375E2,2.8667301E1,7.2406006E0,1.1170042E2,1.7716166E1,7.836599E1,1.2187438E2,8.572773E1,1.3974697E1,1.58386E2,5.0999424E1,1.49521055E1,4.4417E1,5.2489414E0,4.2348647E0,5.9906325E0,5.1490204E1,2.5981458E2,8.193383E2,2.2047747E3,8.7609863E2,1.6355528E2,6.766409E1,4.245532E0,1.2498413E0,1.843476E2,1.4681508E1,6.045255E1,1.599542E1,3.37712E1,1.7453041E1,5.574048E1,1.0222683E2,2.4716458E2,3.4936646E1,1.2325892E2,7.644905E1,5.6732838E1,2.9948875E1,3.3159174E2,1.7498635E0,1.0829934E2,7.59344E1,5.2350354E0,2.3432266E1,1.2486732E0,5.991927E0,7.04597E1,4.1240715E1,3.5E0,1.4216165E1,3.4838474E0,7.488214E1,7.963388E1,4.2240505E1,2.274705E1,6.298068E1,5.748173E0,8.226524E0,3.321043E1,1.2517557E2,2.2879332E1,2.8120094E1,1.170473E1,3.2473752E0,3.7492309E0,1.4997108E0,1.4989922E0,4.4916406E0,3.1495981E1,1.9994225E1,1.4413704E2,1.1567754E2,5.9922915E0,8.1334607E2,2.1029988E3,1.01775795E2,8.65617E2,1.0481598E1,9.147528E1,7.208001E1,5.4955063E1,1.2709032E1],"tree_param":{"num_deleted":"0","num_feature":"3","num_nodes":"123","size_leaf_vector":"0"}},{"base_weights":[6.047471E-1,-7.728181E-1,1.1591094E0,-4.227531E-1,-1.191727E0,-1.367222E-1,1.2692649E0,-1.340267E0,-2.3745561E-3,-1.5183935E0,-5.9863096E-1,-4.259136E-1,1.150124E0,1.0531737E0,1.467085E0,-1.6923227E0,-7.6816785E-1,2.2663593E-1,-3.5389784E-1,-1.5759026E0,-6.9399345E-1,-9.328869E-2,-9.231629E-1,7.32028E-2,-7.337827E-1,1.4371997E0,-6.11106E-1,3.47637E-1,1.1054975E0,1.5732635E0,6.920901E-1,4.2011383E-1,-1.7525505E0,-3.4716147E-1,-1.3783628E0,-9.577768E-2,4.0688884E-1,-6.968749E-1,4.3511996E-1,-1.67971E0,-1.3931078E0,-9.736052E-1,4.2199886E-1,-2.3975854E-1,7.471873E-1,-1.2338065E0,-3.653423E-1,1.8165095E-1,-5.690494E-1,-5.2119654E-1,-1.3351542E0,7.9066426E-1,1.6327906E0,-7.3699E-2,-1.1361767E0,-8.797549E-2,5.530687E-1,1.1194717E0,-9.400914E-1,1.6263379E0,8.66994E-1,8.8871235E-1,-3.4675798E-1,6.098237E-1,-2.0886105E-1,-1.7829207E0,-1.0328615E0,-5.255367E-1,3.181767E-1,-1.5519737E0,-9.7675437E-1,2.4507046E-1,-2.822052E-1,3.4833696E-1,8.00013E-1,-1.7435884E0,-6.3149107E-1,-1.5421759E-1,6.4401954E-1,-1.6871578E0,-1.6949856E-1,-1.2124461E0,-1.6266642E0,6.4395913E-3,-1.0586165E0,-6.276325E-1,6.8968844E-1,-4.849189E-1,-7.642309E-2,-0E0,9.1913027E-1,-1.4768382E0,-8.2585025E-1,-1.3804768E0,2.7725518E-1,-1.9079348E-1,4.3463916E-1,3.37217E-1,-1.0426381E0,-7.670347E-1,-3.743183E-1,-5.128185E-1,-1.381738E0,1.1738447E0,-5.410097E-1,2.383752E-1,-4.35188E-1,7.350103E-1,-2.62839E-1,1.2739816E0,4.3006733E-1,7.416861E-1,1.1911553E0,-1.0655291E0,1.8823302E-1,1.5343798E0,1.749798E0,6.160891E-1,1.3108808E0,-6.5378207E-1,1.0238439E0,-7.275221E-1,1.2207888E-1],"categories":[],"categories_nodes":[],"categories_segments":[],"categories_sizes":[],"default_left":[true,true,true,true,true,true,true,true,true,true,true,true,true,true,true,true,true,true,true,true,true,true,true,true,true,true,true,true,true,true,true,true,true,true,true,true,true,true,true,true,true,true,true,true,true,true,true,true,true,true,true,true,false,true,false,true,true,true,true,true,true,true,true,false,false,false,false,false,false,false,false,false,false,false,false,false,false,false,false,false,false,false,false,false,false,false,false,false,false,false,false,false,false,false,false,false,false,false,false,false,false,false,false,false,false,false,false,false,false,false,false,false,false,false,false,false,false,false,false,false,false,false,false],"id":11,"left_children":[1,3,5,7,9,11,13,15,17,19,21,23,25,27,29,31,33,35,37,39,41,43,45,47,49,51,53,55,57,59,61,63,65,67,69,71,73,75,77,79,81,83,85,87,89,91,93,95,97,99,101,103,-1,105,-1,107,109,111,113,115,117,119,121,-1,-1,-1,-1,-1,-1,-1,-1,-1,-1,-1,-1,-1,-1,-1,-1,-1,-1,-1,-1,-1,-1,-1,-1,-1,-1,-1,-1,-1,-1,-1,-1,-1,-1,-1,-1,-1,-1,-1,-1,-1,-1,-1,-1,-1,-1,-1,-1,-1,-1,-1,-1,-1,-1,-1,-1,-1,-1,-1,-1],"loss_changes":[5.1659893E3,2.8418982E2,6.8864307E2,4.0851038E2,1.7021313E2,1.4145218E2,1.8848096E2,6.572748E1,5.86337E1,2.5877686E1,5.163022E1,4.7690525E1,3.61566E1,7.8177734E1,1.896753E2,2.6841187E1,3.256015E1,2.5670017E1,7.805559E1,7.736084E0,1.2544443E1,1.549719E1,3.280452E1,8.404342E0,2.382827E1,6.3335114E0,2.8736773E0,1.332756E1,5.767163E1,7.498828E1,5.7731308E1,9.023049E-1,2.5231323E0,9.357503E0,2.1215515E0,1.0170084E1,6.237114E0,1.2630989E1,1.0892376E1,3.468628E0,6.3904114E0,2.622572E0,2.817826E0,4.2364473E0,2.4036694E0,1.0960114E1,4.608875E1,9.761663E0,7.8449316E0,4.889683E0,1.1861496E0,8.770101E0,0E0,8.086824E-1,0E0,7.1606474E0,8.40555E0,5.240503E1,2.1796045E0,1.8824219E1,1.5296555E1,5.0000153E1,8.204168E0,0E0,0E0,0E0,0E0,0E0,0E0,0E0,0E0,0E0,0E0,0E0,0E0,0E0,0E0,0E0,0E0,0E0,0E0,0E0,0E0,0E0,0E0,0E0,0E0,0E0,0E0,0E0,0E0,0E0,0E0,0E0,0E0,0E0,0E0,0E0,0E0,0E0,0E0,0E0,0E0,0E0,0E0,0E0,0E0,0E0,0E0,0E0,0E0,0E0,0E0,0E0,0E0,0E0,0E0,0E0,0E0,0E0,0E0,0E0,0E0],"parents":[2147483647,0,0,1,1,2,2,3,3,4,4,5,5,6,6,7,7,8,8,9,9,10,10,11,11,12,12,13,13,14,14,15,15,16,16,17,17,18,18,19,19,20,20,21,21,22,22,23,23,24,24,25,25,26,26,27,27,28,28,29,29,30,30,31,31,32,32,33,33,34,34,35,35,36,36,37,37,38,38,39,39,40,40,41,41,42,42,43,43,44,44,45,45,46,46,47,47,48,48,49,49,50,50,51,51,53,53,55,55,56,56,57,57,58,58,59,59,60,60,61,61,62,62],"right_children":[2,4,6,8,10,12,14,16,18,20,22,24,26,28,30,32,34,36,38,40,42,44,46,48,50,52,54,56,58,60,62,64,66,68,70,72,74,76,78,80,82,84,86,88,90,92,94,96,98,100,102,104,-1,106,-1,108,110,112,114,116,118,120,122,-1,-1,-1,-1,-1,-1,-1,-1,-1,-1,-1,-1,-1,-1,-1,-1,-1,-1,-1,-1,-1,-1,-1,-1,-1,-1,-1,-1,-1,-1,-1,-1,-1,-1,-1,-1,-1,-1,-1,-1,-1,-1,-1,-1,-1,-1,-1,-1,-1,-1,-1,-1,-1,-1,-1,-1,-1,-1,-1,-1],"split_conditions":[5.25E1,1.1465E3,1.25E1,9.15E1,2.15E1,1.94395E4,1.2775E3,5E-1,3.395E2,3.6825E3,2.6365E3,2.9915E3,5.52995E4,9.55E1,9.02535E4,1.5E0,1.255E2,1.505E2,2.45E1,1.15E1,4.05E1,4.55E1,3.7155E3,5E-1,5E-1,1.2742E5,2.5E0,4.85E1,2.550635E5,9.687E3,2.03095E4,6.5E0,8.45E1,5.25E1,2.25E1,5E-1,9.75E1,3.415E2,2.3E1,4.955E2,2.751E3,5E-1,4.1835E3,4.95E1,1.05E1,3.75E1,1.95E1,9.15E1,6.205E2,4.966E3,3.923E3,1.78895E4,1.6327905E-2,8.41255E4,-1.1361767E-2,6.75E1,6.68E2,1.115E2,1.919E3,1.955745E5,2.15435E5,1.605E2,1.50163E5,6.098237E-3,-2.0886105E-3,-1.7829208E-2,-1.0328614E-2,-5.255367E-3,3.1817667E-3,-1.5519736E-2,-9.7675435E-3,2.4507046E-3,-2.822052E-3,3.4833695E-3,8.00013E-3,-1.7435884E-2,-6.3149105E-3,-1.5421758E-3,6.4401953E-3,-1.6871577E-2,-1.6949855E-3,-1.2124461E-2,-1.6266642E-2,6.4395914E-5,-1.0586165E-2,-6.276325E-3,6.896884E-3,-4.849189E-3,-7.642309E-4,-0E0,9.191303E-3,-1.4768382E-2,-8.258502E-3,-1.3804768E-2,2.7725517E-3,-1.9079348E-3,4.3463917E-3,3.37217E-3,-1.0426381E-2,-7.670347E-3,-3.7431829E-3,-5.1281853E-3,-1.3817379E-2,1.1738447E-2,-5.410097E-3,2.383752E-3,-4.35188E-3,7.350103E-3,-2.6283897E-3,1.2739816E-2,4.300673E-3,7.4168607E-3,1.1911553E-2,-1.065529E-2,1.8823302E-3,1.5343798E-2,1.7497981E-2,6.160891E-3,1.3108808E-2,-6.5378207E-3,1.0238439E-2,-7.2752205E-3,1.2207888E-3],"split_indices":[0,2,1,2,0,0,0,1,2,2,2,2,2,1,2,2,1,2,0,0,1,0,2,1,1,0,1,1,2,1,1,0,2,2,0,0,1,2,1,1,2,0,2,1,1,0,1,0,2,2,2,2,0,2,0,0,2,0,1,0,0,1,0,0,0,0,0,0,0,0,0,0,0,0,0,0,0,0,0,0,0,0,0,0,0,0,0,0,0,0,0,0,0,0,0,0,0,0,0,0,0,0,0,0,0,0,0,0,0,0,0,0,0,0,0,0,0,0,0,0,0,0,0],"split_type":[0,0,0,0,0,0,0,0,0,0,0,0,0,0,0,0,0,0,0,0,0,0,0,0,0,0,0,0,0,0,0,0,0,0,0,0,0,0,0,0,0,0,0,0,0,0,0,0,0,0,0,0,0,0,0,0,0,0,0,0,0,0,0,0,0,0,0,0,0,0,0,0,0,0,0,0,0,0,0,0,0,0,0,0,0,0,0,0,0,0,0,0,0,0,0,0,0,0,0,0,0,0,0,0,0,0,0,0,0,0,0,0,0,0,0,0,0,0,0,0,0,0,0],"sum_hessian":[6.762513E3,1.9403749E3,4.8221387E3,1.0581399E3,8.82235E2,3.777835E2,4.444355E3,3.3179004E2,7.263498E2,5.678909E2,3.143441E2,3.0900925E2,6.877426E1,2.1271064E3,2.3172485E3,2.0418286E2,1.27607185E2,4.4003256E2,2.8631726E2,5.300068E2,3.788414E1,1.23431366E2,1.9091273E2,1.18179405E2,1.9082985E2,5.929355E1,9.48071E0,1.4738652E2,1.97972E3,2.0371216E3,2.801269E2,5.4944572E0,1.9868842E2,7.643765E1,5.116953E1,1.5796083E2,2.8207172E2,1.9964893E2,8.666834E1,3.3281503E2,1.9719173E2,3.039601E1,7.4881287E0,1.05721924E2,1.7709438E1,1.2184619E2,6.9066536E1,1.0172046E2,1.6458946E1,1.4236882E2,4.8461025E1,1.4942572E1,4.4350975E1,5.2488756E0,4.2318344E0,4.7415325E1,9.99712E1,1.9667373E3,1.29827175E1,1.8935254E3,1.4359622E2,2.3566685E2,4.4460022E1,4.244646E0,1.2498113E0,1.892259E2,9.462503E0,6.0443142E1,1.5994511E1,3.372582E1,1.744371E1,5.5738594E1,1.0222224E2,2.4714764E2,3.4924076E1,1.022897E1,1.8941995E2,2.274971E1,6.3918633E1,3.3106522E2,1.7498357E0,1.1467725E2,8.2514465E1,2.4999404E0,2.789607E1,1.2484057E0,6.2397227E0,4.148526E1,6.4236664E1,3.5E0,1.4209437E1,7.471571E1,4.713048E1,2.6327599E1,4.2738937E1,4.1245483E1,6.0474976E1,5.7478085E0,1.0711139E1,5.166763E1,9.0701195E1,3.2418408E0,4.521918E1,1.1695724E1,3.2468483E0,2.999755E0,2.2491207E0,7.7477255E0,3.96676E1,1.3207045E1,8.676415E1,3.154749E2,1.6512623E3,1.1733893E1,1.2488235E0,1.0929106E3,8.006147E2,9.326599E1,5.0330235E1,1.8673645E1,2.1699321E2,2.4229977E1,2.0230045E1],"tree_param":{"num_deleted":"0","num_feature":"3","num_nodes":"123","size_leaf_vector":"0"}},{"base_weights":[5.9925616E-1,-7.657765E-1,1.1486943E0,-4.1880283E-1,-1.1812328E0,-1.3548484E-1,1.2579238E0,-1.3287834E0,-2.3620175E-3,-1.51781E0,-6.1425734E-1,-4.2189083E-1,1.1401554E0,9.0698284E-1,1.3781953E0,-1.6785507E0,-7.611177E-1,2.2441466E-1,-3.505139E-1,-1.5787334E0,-6.2231654E-1,-9.679723E-2,-9.469874E-1,1.4138924E-1,-6.89642E-1,1.4251415E0,-6.064731E-1,7.376541E-2,9.51303E-1,1.4496439E0,4.2576453E-1,4.165941E-1,-1.7383851E0,-3.4376624E-1,-1.3666189E0,-9.4826505E-2,4.0290606E-1,-6.9022775E-1,4.3089402E-1,-1.6658174E0,-1.4131622E0,-9.1152686E-1,4.9384797E-1,-2.349009E-1,7.40496E-1,-1.4464254E0,-6.1698216E-1,2.3566636E-1,-4.1439372E-1,-4.766483E-1,-1.3303216E0,7.836644E-1,1.6193795E0,1.3168299E-1,-9.560238E-1,7.900401E-1,-2.2984304E-2,6.3791543E-1,1.0348896E0,1.3549911E0,1.6862429E0,6.9593406E-1,-2.2753079E-1,6.0499924E-1,-2.0770375E-1,-1.7779702E0,-1.1603662E0,-5.2045316E-1,3.1520054E-1,-1.5390825E0,-9.68048E-1,2.4267189E-1,-2.794242E-1,3.4489307E-1,7.925364E-1,-5.399628E-1,-1.1305118E0,1.682991E-1,9.0709585E-1,-1.6732134E0,-1.6842175E-1,-1.2538406E0,-1.6213782E0,-1.4580274E-1,-1.0697057E0,-6.242288E-1,7.8286064E-1,-3.6498106E-1,-9.3115335E-3,-0E0,9.109805E-1,-3.3105293E-1,-1.4933113E0,-1.0898306E0,2.7762333E-1,-3.544564E-1,3.6906677E-1,3.3436424E-1,-9.1756827E-1,-8.445806E-1,-3.731403E-1,-1.5549119E0,-1.1004624E0,1.1639274E0,-5.3694606E-1,-6.568403E-1,6.7934465E-1,-3.762346E-1,-1.2276564E0,-8.141274E-3,1.0095025E0,-2.3638529E-1,3.0843803E-1,9.240794E-1,2.5371334E-1,-7.1021855E-1,1.0486416E0,1.3902683E0,6.208517E-1,1.7089725E0,-1.7154112E-1,1.0461074E0,2.4359813E-1,-1.2400078E-2,-1.089421E0],"categories":[],"categories_nodes":[],"categories_segments":[],"categories_sizes":[],"default_left":[true,true,true,true,true,true,true,true,true,true,true,true,true,true,true,true,true,true,true,true,true,true,true,true,true,true,true,true,true,true,true,true,true,true,true,true,true,true,true,true,true,true,true,true,true,true,true,true,true,true,true,true,false,true,true,true,true,true,true,true,true,true,true,false,false,false,false,false,false,false,false,false,false,false,false,false,false,false,false,false,false,false,false,false,false,false,false,false,false,false,false,false,false,false,false,false,false,false,false,false,false,false,false,false,false,false,false,false,false,false,false,false,false,false,false,false,false,false,false,false,false,false,false,false,false],"id":12,"left_children":[1,3,5,7,9,11,13,15,17,19,21,23,25,27,29,31,33,35,37,39,41,43,45,47,49,51,53,55,57,59,61,63,65,67,69,71,73,75,77,79,81,83,85,87,89,91,93,95,97,99,101,103,-1,105,107,109,111,113,115,117,119,121,123,-1,-1,-1,-1,-1,-1,-1,-1,-1,-1,-1,-1,-1,-1,-1,-1,-1,-1,-1,-1,-1,-1,-1,-1,-1,-1,-1,-1,-1,-1,-1,-1,-1,-1,-1,-1,-1,-1,-1,-1,-1,-1,-1,-1,-1,-1,-1,-1,-1,-1,-1,-1,-1,-1,-1,-1,-1,-1,-1,-1,-1,-1],"loss_changes":[5.068726E3,2.7913794E2,6.760322E2,4.011524E2,1.6742859E2,1.3880612E2,1.8618262E2,6.4711E1,5.74961E1,2.918335E1,5.6781372E1,4.683924E1,3.5553123E1,4.1893494E1,2.2430908E2,2.6399963E1,3.2012375E1,2.5166826E1,7.654794E1,5.1011963E0,1.235268E1,1.5251198E1,3.2224884E1,5.373225E0,2.8054893E1,6.233322E0,2.8292437E0,4.0704937E0,2.7601013E1,6.656201E1,4.1118507E1,8.8942814E-1,2.4976196E0,9.178877E0,2.0921173E0,9.970858E0,6.124382E0,1.2660461E1,1.080835E1,3.4088135E0,4.0978394E0,3.4335365E0,3.150197E0,3.3033495E0,2.361021E0,3.6474304E0,5.2220314E1,6.957552E0,5.9447536E0,5.7531548E0,9.679718E-1,8.625823E0,0E0,2.2798007E0,6.769595E-1,1.2321157E0,3.7852333E0,2.5028069E1,2.1146057E1,5.613672E1,3.721411E1,2.5788734E1,1.2715078E1,0E0,0E0,0E0,0E0,0E0,0E0,0E0,0E0,0E0,0E0,0E0,0E0,0E0,0E0,0E0,0E0,0E0,0E0,0E0,0E0,0E0,0E0,0E0,0E0,0E0,0E0,0E0,0E0,0E0,0E0,0E0,0E0,0E0,0E0,0E0,0E0,0E0,0E0,0E0,0E0,0E0,0E0,0E0,0E0,0E0,0E0,0E0,0E0,0E0,0E0,0E0,0E0,0E0,0E0,0E0,0E0,0E0,0E0,0E0,0E0,0E0,0E0],"parents":[2147483647,0,0,1,1,2,2,3,3,4,4,5,5,6,6,7,7,8,8,9,9,10,10,11,11,12,12,13,13,14,14,15,15,16,16,17,17,18,18,19,19,20,20,21,21,22,22,23,23,24,24,25,25,26,26,27,27,28,28,29,29,30,30,31,31,32,32,33,33,34,34,35,35,36,36,37,37,38,38,39,39,40,40,41,41,42,42,43,43,44,44,45,45,46,46,47,47,48,48,49,49,50,50,51,51,53,53,54,54,55,55,56,56,57,57,58,58,59,59,60,60,61,61,62,62],"right_children":[2,4,6,8,10,12,14,16,18,20,22,24,26,28,30,32,34,36,38,40,42,44,46,48,50,52,54,56,58,60,62,64,66,68,70,72,74,76,78,80,82,84,86,88,90,92,94,96,98,100,102,104,-1,106,108,110,112,114,116,118,